{"learner":{"attributes":{"best_iteration":"243","best_ntree_limit":"244","best_score":"193103.73234743648","scikit_learn":"{\"n_estimators\": 500, \"objective\": \"reg:squarederror\", \"max_depth\": 7, \"max_leaves\": null, \"max_bin\": null, \"grow_policy\": null, \"learning_rate\": 0.01, \"verbosity\": null, \"booster\": null, \"tree_method\": null, \"gamma\": null, \"min_child_weight\": 7, \"max_delta_step\": null, \"subsample\": 0.5, \"sampling_method\": null, \"colsample_bytree\": 0.5, \"colsample_bylevel\": null, \"colsample_bynode\": null, \"reg_alpha\": null, \"reg_lambda\": null, \"scale_pos_weight\": null, \"base_score\": null, \"missing\": NaN, \"num_parallel_tree\": null, \"random_state\": null, \"n_jobs\": null, \"monotone_constraints\": null, \"interaction_constraints\": null, \"importance_type\": null, \"gpu_id\": null, \"validate_parameters\": null, \"predictor\": null, \"enable_categorical\": false, \"feature_types\": null, \"max_cat_to_onehot\": null, \"max_cat_threshold\": null, \"eval_metric\": null, \"early_stopping_rounds\": null, \"callbacks\": null, \"evals_result_\": {\"validation_0\": {\"mae\": [603394.0081770833, 597557.6832528409, 591909.732215909, 586101.899827178, 580380.27390625, 574819.6994625947, 569323.4883522728, 563765.806221591, 558181.7712594697, 552826.1413044508, 547478.4963352273, 541970.6826041667, 536611.0772253788, 531361.3785132576, 526369.9313494319, 521290.8187784091, 516270.9463825758, 511206.16797348484, 506265.0449124053, 501463.2949928977, 496656.45902698865, 492038.9094839015, 487456.91233664774, 482639.50420217804, 477942.12087831437, 473183.4384375, 468661.0428811553, 464152.6602130682, 459587.90864820074, 455273.7959943182, 450911.37223958335, 446704.8642471591, 442479.93266808713, 438207.5087121212, 433846.7518229167, 429886.00743371213, 425734.129358428, 421845.9847135417, 417785.80605113634, 413842.04927556816, 410018.9166998106, 406224.67794981063, 402335.4165719697, 398739.0189962121, 395190.63277935603, 391515.23995738634, 387950.18507575756, 384341.16972064396, 381007.4668087121, 377437.48679924244, 373932.45285511366, 370520.97281723487, 367337.7740909091, 364186.3758475379, 360919.0773532197, 357747.88503787876, 354529.5774905303, 351419.34247632575, 348436.8730492424, 345431.93055397726, 342370.7883901515, 339595.3736505682, 336662.98901041667, 333811.38912878785, 330987.35271780303, 328376.09687026514, 325801.41834753787, 323163.1063399621, 320593.8174621212, 318109.70430397725, 315506.80880681815, 313104.88585227274, 310809.1271875, 308375.6747159091, 306016.3824715909, 303626.2729876894, 301444.2555208333, 299234.8972301136, 296944.67462594697, 294664.34432291664, 292504.52535984846, 290398.5075662879, 288312.56420454546, 286241.6693181818, 284142.3688967803, 282231.2925, 280316.76274621213, 278327.57499526517, 276513.4280587121, 274729.6586837121, 272963.7317376894, 271151.43005208333, 269427.5658806818, 267827.92440814397, 265994.43969223485, 264318.07934185606, 262828.51208333333, 261310.80946969698, 259604.80267992424, 258172.9334375, 256771.4805681818, 255289.7659848485, 253858.58368844696, 252551.1339867424, 251195.94012310606, 249752.53767992425, 248320.62653882575, 246921.28989109848, 245678.6476373106, 244486.3467660985, 243294.1136032197, 242010.48913825757, 240805.14691761363, 239571.20926136363, 238317.67919507576, 237010.52472064394, 235779.39665719698, 234780.39401041667, 233751.62747632575, 232527.25075757576, 231428.50100378788, 230367.9594318182, 229230.40015151515, 228399.89635416667, 227303.75046875, 226445.94464488636, 225643.96803030302, 224907.81178977274, 224055.01828125, 223198.5441998106, 222307.4101467803, 221508.05693655304, 220861.50307765152, 219950.10981060605, 219016.28498579544, 218169.79739583333, 217457.3136316288, 216811.5852035985, 215918.9566193182, 215295.5928598485, 214607.74571969698, 213814.3507717803, 213098.75261837122, 212289.44375473485, 211612.39718276515, 211052.14875, 210276.55476799243, 209442.01835227272, 208867.23743371211, 208297.66668087122, 207670.40577651514, 207108.2112784091, 206502.96822916667, 205931.74152935605, 205343.10746685605, 204911.34758049244, 204415.78369791666, 203830.45370265152, 203336.69913825757, 202647.88117424241, 202049.0772064394, 201597.02772727274, 201105.4255776515, 200561.39676136363, 200057.06239583335, 199534.93671401514, 199105.39850852272, 198470.36524147727, 197855.50125473485, 197270.6041903409, 196955.6396022727, 196382.36704545454, 196014.21041193182, 195732.52117897727, 195146.27369791668, 194729.9918465909, 194356.97305397727, 194049.6833901515, 193799.30062973485, 193514.1284280303, 193233.3059469697, 192767.28067708333, 192335.54115530304, 192022.36042613635, 191699.21661458333, 191308.43442708332, 190902.87585700757, 190494.56141098484, 190075.33454545453, 189672.95203125, 189246.18840435607, 188962.09146306818, 188715.00228219698, 188254.38160511362, 187823.6840814394, 187563.13957386365, 187354.23727746212, 186949.62053030304, 186689.0299526515, 186307.39050189394, 185983.6386837121, 185855.87708806817, 185603.49932291667, 185328.9294554924, 185135.12322443182, 184980.92384469698, 184718.9094933712, 184532.76429450756, 184322.28562973486, 184185.5551941288, 184028.78460700758, 183678.4249715909, 183321.99266098486, 183212.92782670454, 183070.66200284092, 182951.04920454544, 182718.10939867425, 182636.5315625, 182484.5383996212, 182176.41601799242, 181928.88535511363, 181743.2057528409, 181558.6329403409, 181337.32244318182, 181255.44823863637, 181198.96373579546, 180992.24571969698, 180712.82723958333, 180648.89287878788, 180497.67658617423, 180413.86136363636, 180238.1827746212, 180020.6494839015, 179954.0986221591, 179775.67350378787, 179726.7317471591, 179515.05760416668, 179303.1969034091, 179210.71443655304, 179001.43939867424, 178790.0507528409, 178610.51153882575, 178369.9303125, 178182.78437973486, 177992.73304924244, 177910.6628882576, 177752.3223058712, 177569.88362689395, 177484.47747159092, 177328.5955871212, 177171.30336647728, 177148.24495265153, 177031.7899526515, 177049.0591524621, 176898.6518560606, 176855.5319412879, 176692.00875473485, 176690.0575757576, 176591.05044507576, 176452.0024005682, 176398.78165246212, 176244.2534469697, 176136.8727556818, 175947.4867092803, 175799.7191903409, 175741.8480871212, 175581.7001941288, 175571.4683191288, 175448.64380208333, 175342.2059564394, 175179.98991477274, 175003.01267992423, 174985.58051136363, 174930.61417613635, 174854.66618371214, 174740.25059659092, 174610.08225378787, 174485.8906534091, 174334.6513967803, 174141.62114583334, 174048.8916903409, 173917.4752651515, 173883.94475852273, 173860.57137310607, 173801.97043560605, 173808.38083806817, 173735.12103219697, 173621.87516571968, 173646.89408617423, 173518.40062026517, 173512.58912405302, 173460.7988399621, 173412.51291193182, 173349.76784564395]}, \"validation_1\": {\"mae\": [607001.9889850928, 600799.6204893801, 594904.8500170145, 588726.7170733609, 583056.2849595196, 577193.167717077, 571405.2295683983, 565576.0308459052, 559935.4055552405, 554340.3536077869, 549054.804584704, 543379.3604242287, 537806.7611586887, 532334.7575785504, 527199.214177348, 521985.5884116946, 516723.4896920372, 511567.66560798546, 506445.779917196, 501725.27772657666, 496873.71938804444, 492263.9500552972, 487480.1442618534, 482646.69804191246, 477744.2859077246, 472786.3048151089, 468104.84162318514, 463580.5827047414, 458994.3598287205, 454513.13435798546, 449847.94179616607, 445515.99329344375, 441161.5088050136, 436804.8718097777, 432325.68007741607, 428444.6973258848, 424128.063924966, 420108.7341481398, 415826.759386343, 411943.8822737069, 407988.1310968693, 403997.5522345735, 399899.1124234347, 396213.29361388384, 392506.3377382033, 388704.39819646097, 384999.64127722324, 381230.36771211436, 377861.3108836207, 374024.3386740018, 370445.7874461207, 366848.02457180124, 363569.3748723911, 360297.47798037657, 356897.8219288793, 353571.97771098005, 350281.72201111616, 347099.1120264292, 344157.16416175134, 340970.8063038793, 337807.80426213704, 334962.95234516787, 331850.174115245, 328938.0550419692, 326140.9061649274, 323515.24615755444, 320827.7908632033, 318192.8784029038, 315540.5743959846, 313113.2083711434, 310322.6513016107, 307859.82087965065, 305564.06085526315, 303260.82811082125, 300861.6722861842, 298627.1766390653, 296539.26578096644, 294439.34991776315, 292160.7743874773, 289802.4611076452, 287785.10490868875, 285648.84390596644, 283511.1365131579, 281609.7469799229, 279689.1240500227, 277985.1083399501, 276235.450034029, 274317.9818653584, 272514.28242683754, 270775.5689088022, 269097.6518829401, 267217.43038225954, 265508.5244300136, 264036.96805524046, 262156.7850357305, 260488.79951225047, 259075.6906618648, 257627.0334051724, 255932.31625737296, 254555.56525068058, 253171.3292025862, 251707.24004650634, 250336.05494271778, 249173.40564031308, 247816.18286354357, 246388.07224081215, 244989.7224506579, 243556.24163452812, 242395.99417252722, 241215.13613033123, 239993.75679162887, 238814.44386626588, 237639.55487182396, 236464.11269283123, 235369.08795088474, 234039.61097720056, 232866.5728930354, 231902.71632543104, 230871.89412715516, 229657.15488883847, 228673.5598769283, 227731.74071290836, 226644.28201565336, 225793.86476293104, 224732.11496143375, 223877.67448389292, 223033.63787431942, 222330.7704032441, 221575.93025465062, 220846.83134357986, 220107.74498071687, 219425.89181601634, 218804.73012137023, 217994.95247277676, 217070.89560174683, 216406.2145956216, 215677.00313350727, 215152.01527053086, 214285.07052518148, 213743.6212284483, 213102.52844260435, 212541.75090744102, 212006.26381011796, 211267.90440676044, 210705.8854355717, 210258.10998468692, 209570.723896892, 208870.55121370236, 208374.35390199636, 207865.74352030398, 207463.59654321687, 207073.73173774953, 206658.85661014065, 206297.33928368875, 205910.22338645643, 205604.0472578267, 205258.51113033123, 204845.43905966423, 204433.03235594375, 203991.430353902, 203584.5625850726, 203363.92343466423, 203099.60815562613, 202747.640199637, 202420.19578039928, 202195.98542422868, 201929.3642383167, 201563.31552007713, 201164.72381181942, 200752.84464326224, 200561.14450998185, 200183.9707066697, 200007.80105773592, 199898.3843154492, 199450.51819135662, 199248.52654264972, 199149.14534652903, 198960.6844657441, 198842.10261172868, 198680.52118307623, 198533.71716197822, 198258.95537942377, 198061.01834732306, 197918.4513384755, 197811.53940279037, 197581.0259329628, 197431.2908490245, 197241.6938520871, 197050.2698219147, 196908.18981113884, 196594.41562216423, 196427.12918273592, 196326.37332690562, 196006.52391957803, 195906.55013611616, 195745.91994668785, 195615.5401400862, 195359.87763725047, 195204.1859686933, 195044.76795031762, 194973.99515086206, 194923.110948843, 194766.9359545145, 194593.70364961433, 194459.25920201905, 194482.48372277676, 194440.25548718238, 194396.82876304447, 194283.10904888838, 194217.55241889745, 194132.62898423322, 193945.11921506352, 193939.36955535391, 193898.95495406078, 193848.06217388838, 193785.0150862069, 193832.8059352314, 193792.8907100726, 193732.0357872051, 193662.72874602996, 193573.9159340971, 193523.49298151088, 193535.66760719148, 193441.40074863884, 193437.26171166063, 193584.23614734574, 193557.65565449183, 193480.72840573956, 193504.87585072595, 193457.38981681035, 193484.8298264519, 193378.14388611616, 193304.80114280852, 193317.7715659029, 193248.89045485482, 193332.91525351634, 193280.6894566697, 193261.5607985481, 193274.13071404264, 193270.78506408804, 193250.3281675363, 193314.59427461433, 193192.29174228676, 193103.73234743648, 193108.83615018148, 193123.93925816697, 193208.75188577586, 193194.95788906535, 193202.922300363, 193289.42587341196, 193207.54450714609, 193267.99336433757, 193307.51556828493, 193428.0833569646, 193415.399103902, 193440.96415607986, 193457.07331839835, 193565.18421052632, 193650.95822935572, 193832.25492003176, 193873.5740556942, 193854.74288225954, 193826.0824069873, 193747.85000283577, 193781.2641645871, 193868.25439541743, 193823.33565392467, 193944.09016277222, 193983.5182480717, 193947.60704968238, 193999.7969884301, 194040.59564995463, 194123.77960526315, 194123.97527223232, 194140.7120576225, 194064.4224988657, 194072.58595167878, 194038.41895417424, 194091.58364053993, 194077.24863883847, 194145.87881408804, 194067.56094033577, 194112.57337511342, 194072.6634811706, 194106.5535673775, 194205.7593154492, 194189.7427688294, 194164.0041543784, 194252.73821744556, 194227.47715800817, 194307.03160446914, 194300.12844544012, 194277.80250397004, 194301.82215573956]}}, \"_estimator_type\": \"regressor\"}"},"feature_names":["area","quartos","vagas","banheiros","bairro_encoded"],"feature_types":["float","int","float","int","float"],"gradient_booster":{"model":{"gbtree_model_param":{"num_parallel_tree":"1","num_trees":"294","size_leaf_vector":"0"},"tree_info":[0,0,0,0,0,0,0,0,0,0,0,0,0,0,0,0,0,0,0,0,0,0,0,0,0,0,0,0,0,0,0,0,0,0,0,0,0,0,0,0,0,0,0,0,0,0,0,0,0,0,0,0,0,0,0,0,0,0,0,0,0,0,0,0,0,0,0,0,0,0,0,0,0,0,0,0,0,0,0,0,0,0,0,0,0,0,0,0,0,0,0,0,0,0,0,0,0,0,0,0,0,0,0,0,0,0,0,0,0,0,0,0,0,0,0,0,0,0,0,0,0,0,0,0,0,0,0,0,0,0,0,0,0,0,0,0,0,0,0,0,0,0,0,0,0,0,0,0,0,0,0,0,0,0,0,0,0,0,0,0,0,0,0,0,0,0,0,0,0,0,0,0,0,0,0,0,0,0,0,0,0,0,0,0,0,0,0,0,0,0,0,0,0,0,0,0,0,0,0,0,0,0,0,0,0,0,0,0,0,0,0,0,0,0,0,0,0,0,0,0,0,0,0,0,0,0,0,0,0,0,0,0,0,0,0,0,0,0,0,0,0,0,0,0,0,0,0,0,0,0,0,0,0,0,0,0,0,0,0,0,0,0,0,0,0,0,0,0,0,0,0,0,0,0,0,0,0,0,0,0,0,0,0,0,0,0,0,0,0,0,0,0,0,0],"trees":[{"base_weights":[6.3239606E5,4.9644034E5,1.2262902E6,4.1747003E5,9.6107356E5,8.593544E5,1.8830921E6,2.7767378E5,5.420973E5,4.8944397E5,1.0551769E6,7.479527E5,1.1476531E6,2.2353828E5,3.3506188E5,3.7719616E5,6.446841E5,9.15872E5,1.2167106E6,6.3405675E5,1.1612662E6,1.8421495E5,2.7706828E5,5.5074956E5,3.1844444E5,3.2867706E5,5.761813E5,5.0329078E5,8.1038456E5,6.591172E5,1.02712875E6,9.477773E5,5.6882006E5,1.898662E5,3.3308288E5,3.6402553E5,2.1678798E5,8.0127225E5,3.2183288E5,5.16543E5,7.983108E5,3.3536162E5,5.5499956E5,1.7249953E5,2.9487456E5],"categories":[],"categories_nodes":[],"categories_segments":[],"categories_sizes":[],"default_left":[1,1,1,1,1,1,0,1,1,0,1,1,0,1,1,1,1,1,0,1,0,0,0,0,1,1,1,0,0,0,0,0,1,0,0,1,1,0,0,0,0,0,0,0,0],"id":0,"left_children":[1,3,5,7,9,11,-1,13,15,-1,17,19,-1,21,23,25,27,29,-1,31,-1,-1,-1,-1,33,35,37,-1,-1,-1,-1,-1,39,-1,-1,41,43,-1,-1,-1,-1,-1,-1,-1,-1],"loss_changes":[6.6004487E13,2.4292654E13,3.525539E13,9.902206E12,3.788589E12,2.353315E12,0E0,7.763468E11,4.8995007E12,0E0,6.858442E11,2.7942999E12,0E0,2.5207662E11,2.9414444E11,9.595173E11,3.949927E12,6.655941E11,0E0,7.093134E11,0E0,0E0,0E0,0E0,1.7014928E11,3.0868505E11,1.00165747E12,0E0,0E0,0E0,0E0,0E0,2.2348615E11,0E0,0E0,2.1348064E11,3.9051067E10,0E0,0E0,0E0,0E0,0E0,0E0,0E0,0E0],"parents":[2147483647,0,0,1,1,2,2,3,3,4,4,5,5,7,7,8,8,10,10,11,11,13,13,14,14,15,15,16,16,17,17,19,19,24,24,25,25,26,26,32,32,35,35,36,36],"right_children":[2,4,6,8,10,12,-1,14,16,-1,18,20,-1,22,24,26,28,30,-1,32,-1,-1,-1,-1,34,36,38,-1,-1,-1,-1,-1,40,-1,-1,42,44,-1,-1,-1,-1,-1,-1,-1,-1],"split_conditions":[3.01E2,2.5E0,1.5E0,9.3E1,1.27E2,8.95E2,1.883092E4,5E-1,5E-1,4.8944395E3,3.5E0,5E-1,1.1476531E4,5.85E1,4.309E1,2.62E2,1.665E2,1.7806E2,1.2167106E4,3.355E2,1.1612662E4,1.8421495E3,2.7706829E3,5.5074956E3,5.3735E1,2.415E2,2.81E2,5.0329077E3,8.103845E3,6.591172E3,1.0271287E4,9.477772E3,5.685E2,1.898662E3,3.3308286E3,2.235E2,2.51E2,8.012722E3,3.2183286E3,5.1654297E3,7.983108E3,3.3536162E3,5.5499956E3,1.7249952E3,2.9487456E3],"split_indices":[0,3,3,0,0,0,0,3,3,0,3,3,0,0,0,0,0,0,0,0,0,0,0,0,0,0,0,0,0,0,0,0,0,0,0,0,0,0,0,0,0,0,0,0,0],"split_type":[0,0,0,0,0,0,0,0,0,0,0,0,0,0,0,0,0,0,0,0,0,0,0,0,0,0,0,0,0,0,0,0,0,0,0,0,0,0,0,0,0,0,0,0,0],"sum_hessian":[8.24E2,6.72E2,1.52E2,5.76E2,9.6E1,9.9E1,5.3E1,2.73E2,3.03E2,1.7E1,7.9E1,7.4E1,2.5E1,1.43E2,1.3E2,1.18E2,1.85E2,4.6E1,3.3E1,6E1,1.4E1,8.5E1,5.8E1,7E0,1.23E2,9.7E1,2.1E1,1.02E2,8.3E1,1.6E1,3E1,8E0,5.2E1,1.4E1,1.09E2,7.2E1,2.5E1,1E1,1.1E1,4.5E1,7E0,6.5E1,7E0,1.8E1,7E0],"tree_param":{"num_deleted":"0","num_feature":"5","num_nodes":"45","size_leaf_vector":"0"}},{"base_weights":[6.097887E5,3.5160422E5,8.894698E5,2.5665289E5,4.881906E5,6.294988E5,1.11877E6,1.9446367E5,3.0918128E5,4.202196E5,5.628038E5,5.392565E5,8.708036E5,7.831473E5,1.1779218E6,1.6901073E5,2.1169564E5,3.981192E5,5.682612E5,5.5524594E5,2.4838053E5,1.0774302E6,7.0402575E5,4.024159E5,8.669511E5,4.6897944E5,3.5383975E5,5.1778234E5,6.851857E5,6.4124106E5,1.262975E6,5.8336056E5,8.8702E5,2.6775725E5,4.0029856E5,6.506986E5,4.1510338E5,3.1064912E5,8.6519625E5,6.767615E5,3.8363028E5,2.972458E5,1.753104E5,4.6065403E5,3.1134516E5],"categories":[],"categories_nodes":[],"categories_segments":[],"categories_sizes":[],"default_left":[1,1,1,1,1,1,1,1,0,1,0,1,1,1,0,0,0,1,0,1,0,1,1,0,0,0,1,1,1,0,0,1,0,1,0,0,1,0,0,0,0,0,0,0,0],"id":1,"left_children":[1,3,5,7,9,11,13,15,-1,17,-1,19,21,23,-1,-1,-1,25,-1,27,-1,29,31,-1,-1,-1,33,35,37,-1,-1,39,-1,41,-1,-1,43,-1,-1,-1,-1,-1,-1,-1,-1],"loss_changes":[5.8754515E13,5.4124893E12,2.2663368E13,7.6961704E11,6.45948E11,3.5807277E12,3.1870335E12,1.6415457E10,0E0,8.458338E10,0E0,5.0392046E11,9.300366E11,7.3595565E11,0E0,0E0,0E0,1.0389501E11,0E0,2.780614E11,0E0,8.0878135E11,1.4498031E11,0E0,0E0,0E0,1.2077656E11,1.1629043E12,1.4841618E12,0E0,0E0,1.3212844E11,0E0,1.0590749E10,0E0,0E0,1.4960558E11,0E0,0E0,0E0,0E0,0E0,0E0,0E0,0E0],"parents":[2147483647,0,0,1,1,2,2,3,3,4,4,5,5,6,6,7,7,9,9,11,11,12,12,13,13,17,17,19,19,21,21,22,22,26,26,27,27,28,28,31,31,33,33,36,36],"right_children":[2,4,6,8,10,12,14,16,-1,18,-1,20,22,24,-1,-1,-1,26,-1,28,-1,30,32,-1,-1,-1,34,36,38,-1,-1,40,-1,42,-1,-1,44,-1,-1,-1,-1,-1,-1,-1,-1],"split_conditions":[1.599E2,9.15E1,7.7419575E5,6.15E1,1.2863E2,3.375E2,2.01E2,4.65E1,3.0918127E3,8.572951E5,5.628038E3,7.364415E5,6.733545E5,8.17823E5,1.1779217E4,1.6901073E3,2.1169563E3,6.276576E5,5.682612E3,2.775E2,2.4838052E3,5.4911975E5,6.3425E2,4.024159E3,8.669511E3,4.6897944E3,6.985462E5,6.212999E5,5.841847E5,6.4124106E3,1.262975E4,4.105E2,8.8702E3,1.21E2,4.0029856E3,6.5069863E3,2.49E2,3.1064912E3,8.651962E3,6.7676147E3,3.8363027E3,2.972458E3,1.753104E3,4.60654E3,3.1134514E3],"split_indices":[0,0,4,0,0,0,0,0,0,4,0,4,4,4,0,0,0,4,0,0,0,4,0,0,0,0,4,4,4,0,0,0,0,0,0,0,0,0,0,0,0,0,0,0,0],"split_type":[0,0,0,0,0,0,0,0,0,0,0,0,0,0,0,0,0,0,0,0,0,0,0,0,0,0,0,0,0,0,0,0,0,0,0,0,0,0,0,0,0,0,0,0,0],"sum_hessian":[8.17E2,4.26E2,3.91E2,2.53E2,1.73E2,1.85E2,2.06E2,1.18E2,1.35E2,9.4E1,7.9E1,1.37E2,4.8E1,3.3E1,1.73E2,5.2E1,6.6E1,8.5E1,9E0,1.29E2,8E0,1.9E1,2.9E1,7E0,2.6E1,2.9E1,5.6E1,1.04E2,2.5E1,7E0,1.2E1,2E1,9E0,2.2E1,3.4E1,4.3E1,6.1E1,9E0,1.6E1,1.2E1,8E0,1.5E1,7E0,4E1,2.1E1],"tree_param":{"num_deleted":"0","num_feature":"5","num_nodes":"45","size_leaf_vector":"0"}},{"base_weights":[5.633514E5,4.2224966E5,1.0099504E6,3.4987812E5,5.547732E5,8.308754E5,1.4986268E6,4.2530634E5,2.77645E5,4.180211E5,5.866893E5,5.781517E5,1.0159514E6,2.3175597E5,3.526062E5,5.6183706E5,7.4415444E5,5.0052512E5,1.0618106E6],"categories":[],"categories_nodes":[],"categories_segments":[],"categories_sizes":[],"default_left":[1,1,1,1,1,1,0,0,1,0,1,0,1,0,0,0,0,0,0],"id":2,"left_children":[1,3,5,7,9,11,-1,-1,13,-1,15,-1,17,-1,-1,-1,-1,-1,-1],"loss_changes":[5.38302E13,6.097545E12,1.678183E13,2.2083975E12,7.586154E11,6.5689176E12,0E0,0E0,6.784979E11,0E0,3.0196053E11,0E0,1.524965E12,0E0,0E0,0E0,0E0,0E0,0E0],"parents":[2147483647,0,0,1,1,2,2,3,3,4,4,5,5,8,8,10,10,12,12],"right_children":[2,4,6,8,10,12,-1,-1,14,-1,16,-1,18,-1,-1,-1,-1,-1,-1],"split_conditions":[1.5E0,2.5E0,3.5E0,1.5E0,5E-1,2.5E0,1.4986268E4,4.2530635E3,5E-1,4.180211E3,3.5E0,5.7815166E3,2.5E0,2.3175596E3,3.5260618E3,5.6183706E3,7.4415444E3,5.005251E3,1.0618106E4],"split_indices":[3,1,1,1,3,3,0,0,3,0,1,0,1,0,0,0,0,0,0],"split_type":[0,0,0,0,0,0,0,0,0,0,0,0,0,0,0,0,0,0,0],"sum_hessian":[8.6E2,6.55E2,2.05E2,4.26E2,2.29E2,1.52E2,5.3E1,2.06E2,2.2E2,4.6E1,1.83E2,6.6E1,8.6E1,1.39E2,8.1E1,1.62E2,2.1E1,8E0,7.8E1],"tree_param":{"num_deleted":"0","num_feature":"5","num_nodes":"19","size_leaf_vector":"0"}},{"base_weights":[5.961604E5,4.7122972E5,1.1726258E6,3.0391144E5,6.580148E5,8.0691306E5,1.4013815E6,2.4019708E5,3.882496E5,5.2185722E5,8.88727E5,7.462452E5,1.0852232E6,4.6155444E5,2.2988397E5,3.6330244E5,5.1574897E5,5.347549E5,1.486931E5,6.834198E5,9.57174E5,6.793355E5,9.459505E5,1.835826E5,2.729279E5,3.0666722E5,3.903135E5,4.9301884E5,6.8477706E5,7.420612E5,4.147382E5,8.560419E5,5.8600844E5,5.776556E5,4.1851344E5,7.378201E5,4.5717016E5,7.408132E5,4.843867E5,6.410755E5,4.55259E5,2.9831788E5,5.34468E5,5.8076044E5,9.25013E5],"categories":[],"categories_nodes":[],"categories_segments":[],"categories_sizes":[],"default_left":[1,1,1,1,1,1,0,1,1,1,1,1,0,0,1,1,0,1,0,1,0,1,0,0,0,0,0,1,1,0,0,0,1,1,1,1,0,0,0,0,0,0,0,0,0],"id":3,"left_children":[1,3,5,7,9,11,-1,13,15,17,19,21,-1,-1,23,25,-1,27,-1,29,-1,31,-1,-1,-1,-1,-1,33,35,-1,-1,-1,37,39,41,43,-1,-1,-1,-1,-1,-1,-1,-1,-1],"loss_changes":[5.7134004E13,2.0426713E13,1.0748776E13,1.7874844E12,9.305726E12,1.525762E11,0E0,3.550384E11,2.8656114E11,8.734554E11,9.47854E11,2.5488785E10,0E0,0E0,3.3852857E11,7.6114035E10,0E0,8.583056E11,0E0,1.9642764E11,0E0,1.7450612E11,0E0,0E0,0E0,0E0,0E0,7.230477E11,1.3353615E11,0E0,0E0,0E0,1.131057E11,2.4374778E11,1.02522316E12,3.448022E11,0E0,0E0,0E0,0E0,0E0,0E0,0E0,0E0,0E0],"parents":[2147483647,0,0,1,1,2,2,3,3,4,4,5,5,7,7,8,8,9,9,10,10,11,11,14,14,15,15,17,17,19,19,21,21,27,27,28,28,32,32,33,33,34,34,35,35],"right_children":[2,4,6,8,10,12,-1,14,16,18,20,22,-1,-1,24,26,-1,28,-1,30,-1,32,-1,-1,-1,-1,-1,34,36,-1,-1,-1,38,40,42,44,-1,-1,-1,-1,-1,-1,-1,-1,-1],"split_conditions":[3.045E2,1.2863E2,7.8687306E5,7.65E1,8.020071E5,1.8568201E3,1.4013814E4,3.45E1,8.3533544E5,7.963551E5,1.575E2,7.266829E5,1.0852232E4,4.6155444E3,5.55E1,9.55E1,5.1574897E3,7.332359E5,1.4869309E3,1.505E2,9.57174E3,6.001441E5,9.459505E3,1.8358259E3,2.729279E3,3.066672E3,3.903135E3,6.212999E5,7.795481E5,7.420612E3,4.147382E3,8.560419E3,3.935E2,2.08905E2,6.8319975E5,7.7419575E5,4.5717017E3,7.408132E3,4.8438667E3,6.410755E3,4.55259E3,2.9831787E3,5.3446797E3,5.807604E3,9.25013E3],"split_indices":[0,0,4,0,4,0,0,0,4,4,0,4,0,0,0,0,0,4,0,0,0,4,0,0,0,0,0,4,4,0,0,0,0,0,4,4,0,0,0,0,0,0,0,0,0],"split_type":[0,0,0,0,0,0,0,0,0,0,0,0,0,0,0,0,0,0,0,0,0,0,0,0,0,0,0,0,0,0,0,0,0,0,0,0,0,0,0,0,0,0,0,0,0],"sum_hessian":[8E2,6.59E2,1.41E2,3.49E2,3.1E2,5.6E1,8.5E1,2.01E2,1.48E2,1.97E2,1.13E2,4.9E1,7E0,7E0,1.94E2,1.27E2,2.1E1,1.9E2,7E0,3.1E1,8.2E1,4E1,9E0,9.6E1,9.8E1,4.5E1,8.2E1,1.52E2,3.8E1,2.4E1,7E0,1.1E1,2.9E1,6.8E1,8.4E1,2.9E1,9E0,9E0,2E1,4.2E1,2.6E1,4.3E1,4.1E1,1.8E1,1.1E1],"tree_param":{"num_deleted":"0","num_feature":"5","num_nodes":"45","size_leaf_vector":"0"}},{"base_weights":[5.909086E5,3.7297856E5,8.246379E5,2.9566716E5,6.331631E5,5.2993556E5,1.0475329E6,3.5420188E5,2.4876239E5,8.294636E5,4.9174344E5,4.375161E5,5.547628E5,9.7059056E5,1.8468644E6,3.8274562E5,2.1210789E5,1.0883919E6,4.8599597E5,5.346629E5,3.7098766E5,6.1715656E5,4.861376E5,8.8432225E5,1.1778526E6,3.2668012E5,4.5694634E5,3.5418362E5,5.731517E5,2.7547612E5,4.4650312E5,4.4250747E5,6.2593394E5,8.099429E5,1.0301534E6,3.5364878E5,1.6011858E5,7.110851E5,3.7563453E5,4.7632662E5,3.2818922E5,9.988034E5,6.300662E5,1.1880391E6,6.03602E5,3.1964525E5,5.43217E5,4.2841E5,3.074848E5,7.6296694E5,1.3756811E6],"categories":[],"categories_nodes":[],"categories_segments":[],"categories_sizes":[],"default_left":[1,1,1,1,1,1,1,1,0,1,1,0,1,1,0,1,0,0,0,1,1,0,1,1,0,1,1,0,0,0,0,1,0,1,1,1,0,0,1,0,0,1,0,0,0,0,0,0,0,0,0],"id":4,"left_children":[1,3,5,7,9,11,13,15,-1,17,19,-1,21,23,-1,25,-1,-1,-1,27,29,-1,31,33,-1,35,37,-1,-1,-1,-1,39,-1,41,43,45,-1,-1,47,-1,-1,49,-1,-1,-1,-1,-1,-1,-1,-1,-1],"loss_changes":[4.2428237E13,8.583035E12,2.5982673E13,8.398863E11,2.34043E12,1.6112E11,1.2291525E13,5.1908706E11,0E0,3.028386E12,1.1261182E11,0E0,2.7801525E11,2.731096E12,0E0,3.5825857E11,0E0,0E0,0E0,8.8749375E10,1.4038335E10,0E0,1.4387302E11,8.2520415E11,0E0,2.7128601E11,7.6611584E11,0E0,0E0,0E0,0E0,6.0177777E10,0E0,2.9716728E12,2.5155254E12,2.2601479E11,0E0,0E0,1.2136219E10,0E0,0E0,3.3944754E12,0E0,0E0,0E0,0E0,0E0,0E0,0E0,0E0,0E0],"parents":[2147483647,0,0,1,1,2,2,3,3,4,4,5,5,6,6,7,7,9,9,10,10,12,12,13,13,15,15,19,19,20,20,22,22,23,23,25,25,26,26,31,31,33,33,34,34,35,35,38,38,41,41],"right_children":[2,4,6,8,10,12,14,16,-1,18,20,-1,22,24,-1,26,-1,-1,-1,28,30,-1,32,34,-1,36,38,-1,-1,-1,-1,40,-1,42,44,46,-1,-1,48,-1,-1,50,-1,-1,-1,-1,-1,-1,-1,-1,-1],"split_conditions":[2.5E0,8.300225E5,7.155754E5,5E-1,8.701781E5,4.8828494E5,1.1091388E6,7.8687306E5,2.4876238E3,5E-1,1.0277193E6,4.3751606E3,6.212999E5,3.5E0,1.8468643E4,6.8512225E5,2.1210789E3,1.0883919E4,4.8599595E3,9.8053475E5,1E0,6.1715654E3,7.030284E5,8.334119E5,1.1778526E4,6.662729E5,6.9360175E5,3.5418362E3,5.7315166E3,2.7547612E3,4.4650312E3,6.864529E5,6.2593394E3,8.301592E5,1.01113744E6,6.61982E5,1.6011858E3,7.110851E3,7.364415E5,4.763266E3,3.281892E3,7.901254E5,6.3006616E3,1.1880391E4,6.03602E3,3.1964524E3,5.43217E3,4.2841E3,3.0748481E3,7.6296694E3,1.3756811E4],"split_indices":[1,4,4,1,4,4,4,4,0,1,4,0,4,1,0,4,0,0,0,4,1,0,4,4,0,4,4,0,0,0,0,4,0,4,4,4,0,0,4,0,0,4,0,0,0,0,0,0,0,0,0],"split_type":[0,0,0,0,0,0,0,0,0,0,0,0,0,0,0,0,0,0,0,0,0,0,0,0,0,0,0,0,0,0,0,0,0,0,0,0,0,0,0,0,0,0,0,0,0,0,0,0,0,0,0],"sum_hessian":[8.38E2,4.35E2,4.03E2,3.37E2,9.8E1,1.75E2,2.28E2,1.47E2,1.9E2,3.9E1,5.9E1,4.1E1,1.34E2,2.1E2,1.8E1,1.21E2,2.6E1,2.1E1,1.8E1,4.1E1,1.8E1,6.6E1,6.8E1,1.52E2,5.8E1,7.2E1,4.9E1,9E0,3.2E1,1E1,8E0,5.5E1,1.3E1,1.05E2,4.7E1,6.1E1,1.1E1,1E1,3.9E1,4E1,1.5E1,4.9E1,5.6E1,3.3E1,1.4E1,5.4E1,7E0,1.9E1,2E1,3.2E1,1.7E1],"tree_param":{"num_deleted":"0","num_feature":"5","num_nodes":"51","size_leaf_vector":"0"}},{"base_weights":[5.687871E5,4.57803E5,1.1993488E6,2.9539722E5,6.180469E5,8.211168E5,1.4455981E6,2.1367542E5,3.6345062E5,4.766556E5,7.784829E5,3.581571E5,9.0968606E5,1.2318254E6,1.6429679E6,1.6491097E5,2.60453E5,2.998634E5,4.1733572E5,3.4842438E5,6.686408E5,6.5463306E5,1.2843872E6,1.4292395E6,9.384078E5,1.7434738E6,1.0732635E6,2.595596E5,4.181366E5,5.513446E5,3.068015E5,5.826513E5,9.852205E5,4.936187E5,7.773733E5,1.6992642E5,2.8629053E5,5.702238E5,3.0914766E5,2.697898E5,4.085254E5,7.927063E5,5.3768506E5,3.3361072E5,1.6961634E5,6.413291E5,2.8236125E5,3.3794253E5,5.644935E5],"categories":[],"categories_nodes":[],"categories_segments":[],"categories_sizes":[],"default_left":[1,1,1,1,1,1,1,1,1,1,1,0,0,1,1,0,0,1,0,1,1,1,0,0,0,0,0,1,1,0,1,1,0,0,0,0,0,0,0,1,1,0,1,0,0,0,0,0,0],"id":5,"left_children":[1,3,5,7,9,11,13,15,17,19,21,-1,-1,23,25,-1,-1,27,-1,29,31,33,-1,-1,-1,-1,-1,35,37,-1,39,41,-1,-1,-1,-1,-1,-1,-1,43,45,-1,47,-1,-1,-1,-1,-1,-1],"loss_changes":[5.8655982E13,1.858112E13,1.0548557E13,1.9244599E12,7.840622E12,1.8063966E12,1.1405655E12,3.3570842E11,5.43003E11,4.567639E12,9.685436E12,0E0,0E0,9.7577966E11,1.9010263E11,0E0,0E0,3.3478672E11,0E0,8.359353E11,1.5220961E12,2.3237954E12,0E0,0E0,0E0,0E0,0E0,1.23862516E11,1.883848E11,0E0,2.7004607E11,1.6883122E11,0E0,0E0,0E0,0E0,0E0,0E0,0E0,4.35687E11,5.5320065E11,0E0,1.0374611E11,0E0,0E0,0E0,0E0,0E0,0E0],"parents":[2147483647,0,0,1,1,2,2,3,3,4,4,5,5,6,6,7,7,8,8,9,9,10,10,13,13,14,14,17,17,19,19,20,20,21,21,27,27,28,28,30,30,31,31,39,39,40,40,42,42],"right_children":[2,4,6,8,10,12,14,16,18,20,22,-1,-1,24,26,-1,-1,28,-1,30,32,34,-1,-1,-1,-1,-1,36,38,-1,40,42,-1,-1,-1,-1,-1,-1,-1,44,46,-1,48,-1,-1,-1,-1,-1,-1],"split_conditions":[2.5E0,1.2948001E2,2.01E2,5E-1,5E-1,1.2275E2,3.115E2,5.75E1,7.836E1,3.11E2,2.765E2,3.5815708E3,9.09686E3,2.485E2,6.185E2,1.6491096E3,2.60453E3,1.5E0,4.173357E3,1.635E2,1.084E3,1.6539499E2,1.2843872E4,1.4292395E4,9.384078E3,1.7434736E4,1.0732635E4,5.55E1,6.6E1,5.5134463E3,2.625E2,3.355E2,9.852205E3,4.9361865E3,7.773733E3,1.6992642E3,2.8629053E3,5.702238E3,3.0914766E3,2.415E2,2.83E2,7.927063E3,3.7408002E2,3.3361072E3,1.6961635E3,6.413291E3,2.8236125E3,3.3794253E3,5.644935E3],"split_indices":[3,0,0,3,3,0,0,0,0,0,0,0,0,0,0,0,0,3,0,0,0,0,0,0,0,0,0,0,0,0,0,0,0,0,0,0,0,0,0,0,0,0,0,0,0,0,0,0,0],"split_type":[0,0,0,0,0,0,0,0,0,0,0,0,0,0,0,0,0,0,0,0,0,0,0,0,0,0,0,0,0,0,0,0,0,0,0,0,0,0,0,0,0,0,0,0,0,0,0,0,0],"sum_hessian":[8.45E2,7.2E2,1.25E2,3.59E2,3.61E2,5.1E1,7.4E1,1.65E2,1.94E2,1.94E2,1.67E2,9E0,4.2E1,3.9E1,3.5E1,8.3E1,8.2E1,9.2E1,1.02E2,1.18E2,7.6E1,1.36E2,3.1E1,2.1E1,1.8E1,2.8E1,7E0,7.1E1,2.1E1,1.8E1,1E2,6.2E1,1.4E1,6.1E1,7.5E1,1.8E1,5.3E1,7E0,1.4E1,7.6E1,2.4E1,8E0,5.4E1,4.5E1,3.1E1,7E0,1.7E1,8E0,4.6E1],"tree_param":{"num_deleted":"0","num_feature":"5","num_nodes":"49","size_leaf_vector":"0"}},{"base_weights":[5.712768E5,4.402177E5,1.296245E6,3.7858497E5,5.8774775E5,1.1823836E6,2.163345E6,2.905708E5,4.7288025E5,5.1627038E5,6.55029E5,1.0535526E6,1.3256392E6,2.5197033E5,3.536719E5,3.7197225E5,5.2229672E5,4.690402E5,6.287582E5,9.971564E5,6.1300525E5,9.454229E5,1.454229E6,2.0539619E5,2.6554178E5,4.2652294E5,2.287889E5,3.848661E5,2.2032808E5,4.824938E5,6.198844E5,5.249599E5,3.1668756E5,8.521312E5,5.189517E5,5.588752E5,7.102216E5,4.1660412E5,2.507404E5,2.8104125E5,1.9185345E5,5.0677788E5,3.7917975E5,4.9532544E5,8.788075E5,8.2830144E5,5.47753E5,1.9842439E5,2.7167134E5,2.3402466E5,4.182828E5],"categories":[],"categories_nodes":[],"categories_segments":[],"categories_sizes":[],"default_left":[1,1,1,1,1,1,0,1,1,1,1,0,1,1,1,1,1,1,1,0,1,0,0,0,1,0,1,0,0,1,1,0,0,0,0,0,1,0,1,0,0,0,1,0,0,0,0,0,0,0,0],"id":6,"left_children":[1,3,5,7,9,11,-1,13,15,17,19,-1,21,23,25,27,29,31,33,-1,35,-1,-1,-1,37,-1,39,-1,-1,41,43,-1,-1,-1,-1,-1,45,-1,47,-1,-1,-1,49,-1,-1,-1,-1,-1,-1,-1,-1],"loss_changes":[8.104612E13,6.406061E12,1.0375634E13,4.1533508E12,6.86163E11,7.811304E11,0E0,5.685316E11,1.0423726E12,2.788709E11,9.1274766E11,0E0,1.1675097E12,5.3545533E10,8.122018E11,8.1400955E10,3.3793088E11,5.153122E11,2.6909082E11,0E0,1.1351884E11,0E0,0E0,0E0,1.8397476E11,0E0,2.1349794E10,0E0,0E0,1.114133E11,9.837562E11,0E0,0E0,0E0,0E0,0E0,1.4100726E11,0E0,7.749658E10,0E0,0E0,0E0,5.5363764E10,0E0,0E0,0E0,0E0,0E0,0E0,0E0,0E0],"parents":[2147483647,0,0,1,1,2,2,3,3,4,4,5,5,7,7,8,8,9,9,10,10,12,12,13,13,14,14,15,15,16,16,17,17,18,18,20,20,24,24,26,26,29,29,30,30,36,36,38,38,42,42],"right_children":[2,4,6,8,10,12,-1,14,16,18,20,-1,22,24,26,28,30,32,34,-1,36,-1,-1,-1,38,-1,40,-1,-1,42,44,-1,-1,-1,-1,-1,46,-1,48,-1,-1,-1,50,-1,-1,-1,-1,-1,-1,-1,-1],"split_conditions":[2.5E0,8.14707E5,1.1091388E6,5E-1,5E-1,3.5E0,2.163345E4,6.857785E5,5.554991E5,1.00025994E6,8.301592E5,1.0535526E4,7.888851E5,4.6115575E5,7.723581E5,5.1772925E5,7.286176E5,9.038776E5,1.01302975E6,9.971563E3,9.9973056E5,9.454229E3,1.454229E4,2.053962E3,4.8828494E5,4.2652295E3,7.8685875E5,3.848661E3,2.2032808E3,6.8742875E5,1.5E0,5.2495986E3,3.1668755E3,8.521312E3,5.1895166E3,5.588752E3,1.0277193E6,4.166041E3,5.841847E5,2.8104124E3,1.9185345E3,5.067779E3,6.943229E5,4.9532544E3,8.788075E3,8.283015E3,5.47753E3,1.9842439E3,2.7167134E3,2.3402466E3,4.182828E3],"split_indices":[3,4,4,3,3,3,0,4,4,4,4,0,4,4,4,4,4,4,4,0,4,0,0,0,4,0,4,0,0,4,3,0,0,0,0,0,4,0,4,0,0,0,4,0,0,0,0,0,0,0,0],"split_type":[0,0,0,0,0,0,0,0,0,0,0,0,0,0,0,0,0,0,0,0,0,0,0,0,0,0,0,0,0,0,0,0,0,0,0,0,0,0,0,0,0,0,0,0,0,0,0,0,0,0,0],"sum_hessian":[8.58E2,7.28E2,1.3E2,5.16E2,2.12E2,1.17E2,1.3E1,2.69E2,2.47E2,1.07E2,1.05E2,6.6E1,5.1E1,1.7E2,9.9E1,8.4E1,1.63E2,7.9E1,2.8E1,9E0,9.6E1,1.5E1,3.6E1,4.2E1,1.28E2,6.1E1,3.8E1,7.6E1,8E0,1.2E2,4.3E1,5.6E1,2.3E1,7E0,2.1E1,6.6E1,3E1,9E0,1.19E2,1.3E1,2.5E1,9.4E1,2.6E1,3.1E1,1.2E1,1.5E1,1.5E1,3.7E1,8.2E1,7E0,1.9E1],"tree_param":{"num_deleted":"0","num_feature":"5","num_nodes":"51","size_leaf_vector":"0"}},{"base_weights":[5.554588E5,4.4203E5,1.204516E6,3.5939403E5,5.6857406E5,4.5861734E5,1.2670194E6,4.8498078E5,2.714528E5,5.1893475E5,7.8794544E5,1.1272949E6,1.5811025E6,2.4135917E5,3.1119334E5,4.040294E5,5.349654E5,4.73867E5,9.0003775E5,3.4476872E5,2.1974658E5],"categories":[],"categories_nodes":[],"categories_segments":[],"categories_sizes":[],"default_left":[1,1,1,1,1,0,1,0,1,1,1,0,0,1,0,0,0,0,0,0,0],"id":7,"left_children":[1,3,5,7,9,-1,11,-1,13,15,17,-1,-1,19,-1,-1,-1,-1,-1,-1,-1],"loss_changes":[6.0131908E13,7.147002E12,5.1066826E12,4.5952837E12,2.596593E12,0E0,3.132776E12,0E0,2.2865877E11,2.0383479E11,1.2985859E12,0E0,0E0,2.5724558E11,0E0,0E0,0E0,0E0,0E0,0E0,0E0],"parents":[2147483647,0,0,1,1,2,2,3,3,4,4,6,6,8,8,9,9,10,10,13,13],"right_children":[2,4,6,8,10,-1,12,-1,14,16,18,-1,-1,20,-1,-1,-1,-1,-1,-1,-1],"split_conditions":[2.5E0,2.5E0,2.5E0,5E-1,3.5E0,4.5861733E3,3.5E0,4.8498076E3,5E-1,5E-1,5E-1,1.1272948E4,1.5811024E4,1.5E0,3.1119333E3,4.040294E3,5.349654E3,4.73867E3,9.000377E3,3.447687E3,2.1974658E3],"split_indices":[3,1,1,1,1,0,1,0,3,3,3,0,0,1,0,0,0,0,0,0,0],"split_type":[0,0,0,0,0,0,0,0,0,0,0,0,0,0,0,0,0,0,0,0,0],"sum_hessian":[8.23E2,7.02E2,1.21E2,4.27E2,2.75E2,1E1,1.11E2,1.74E2,2.53E2,2.27E2,4.8E1,8E1,3.1E1,1.48E2,1.05E2,3.1E1,1.96E2,1.4E1,3.4E1,2.3E1,1.25E2],"tree_param":{"num_deleted":"0","num_feature":"5","num_nodes":"21","size_leaf_vector":"0"}},{"base_weights":[5.61147E5,4.3028703E5,1.1203378E6,4.048307E5,8.55071E5,9.5427094E5,1.2327102E6,3.52116E5,4.978892E5,5.1526194E5,1.019946E6,9.644671E5,1.2849252E6,4.630501E5,2.6157184E5,4.190348E5,5.593007E5,8.966499E5,1.215541E6,7.128507E5,1.1648352E6,2.1785478E5,3.736082E5,6.1601556E5,3.2552944E5,3.3253488E5,1.9290002E5],"categories":[],"categories_nodes":[],"categories_segments":[],"categories_sizes":[],"default_left":[1,1,1,1,0,1,1,1,1,0,1,1,0,0,1,1,0,0,0,0,0,1,0,0,0,0,0],"id":8,"left_children":[1,3,5,7,-1,9,11,13,15,-1,17,19,-1,-1,21,23,-1,-1,-1,-1,-1,25,-1,-1,-1,-1,-1],"loss_changes":[6.1497707E13,7.093499E12,1.8094899E12,3.018196E12,0E0,1.4638624E12,4.9308238E10,4.087496E12,8.939488E11,0E0,3.3293546E11,1.27548785E11,0E0,0E0,1.0598188E12,1.751858E12,0E0,0E0,0E0,0E0,0E0,4.2236274E11,0E0,0E0,0E0,0E0,0E0],"parents":[2147483647,0,0,1,1,2,2,3,3,5,5,6,6,7,7,8,8,10,10,11,11,14,14,15,15,21,21],"right_children":[2,4,6,8,-1,10,12,14,16,-1,18,20,-1,-1,22,24,-1,-1,-1,-1,-1,26,-1,-1,-1,-1,-1],"split_conditions":[2.5E0,3.5E0,3.5E0,2.5E0,8.55071E3,2.5E0,2.5E0,5E-1,1.5E0,5.152619E3,3.5E0,4.5E0,1.2849252E4,4.630501E3,1.5E0,5E-1,5.593007E3,8.966499E3,1.215541E4,7.128507E3,1.1648353E4,5E-1,3.7360818E3,6.1601553E3,3.2552942E3,3.3253486E3,1.9290001E3],"split_indices":[2,1,2,1,0,1,1,1,2,0,1,2,0,0,2,2,0,0,0,0,0,2,0,0,0,0,0],"split_type":[0,0,0,0,0,0,0,0,0,0,0,0,0,0,0,0,0,0,0,0,0,0,0,0,0,0,0],"sum_hessian":[8.46E2,6.87E2,1.59E2,6.5E2,3.7E1,6.8E1,9.1E1,4.18E2,2.32E2,1E1,5.8E1,1.8E1,7.3E1,1.86E2,2.32E2,1.05E2,1.27E2,3.9E1,1.9E1,1E1,8E0,1.69E2,6.3E1,3.2E1,7.3E1,2.8E1,1.41E2],"tree_param":{"num_deleted":"0","num_feature":"5","num_nodes":"27","size_leaf_vector":"0"}},{"base_weights":[5.424177E5,4.3655072E5,1.1460881E6,3.7346878E5,6.0342756E5,8.323369E5,1.3178655E6,3.0966856E5,4.4631066E5,4.952238E5,6.985462E5,5.157584E5,8.738074E5,1.2295842E6,1.7678754E6,2.498748E5,3.6652222E5,4.045513E5,6.307279E5,5.591266E5,4.1222012E5,6.130693E5,8.055467E5,1.1191832E6,7.6982094E5,1.2739065E6,8.720165E5,2.6944428E5,1.7296144E5,4.450853E5,1.8605714E5,5.2817944E5,9.265745E5,2.7320506E5,4.6450156E5,1.0103929E6,6.718143E5,5.0592006E5,8.667795E5,1.9126308E5,2.9415847E5,6.6637325E5,4.188845E5,7.115367E5,3.874894E5,5.174616E5,2.7166344E5,3.861637E5,2.7500475E5,1.8344864E5,4.8500538E5],"categories":[],"categories_nodes":[],"categories_segments":[],"categories_sizes":[],"default_left":[1,1,1,1,1,1,1,1,1,1,1,0,1,1,0,1,1,0,1,0,1,0,1,0,1,0,0,1,0,1,0,1,0,0,1,0,0,0,0,0,1,0,1,0,0,0,0,0,0,0,0],"id":9,"left_children":[1,3,5,7,9,11,13,15,17,19,21,-1,23,25,-1,27,29,-1,31,-1,33,-1,35,-1,37,-1,-1,39,-1,41,-1,43,-1,-1,45,-1,-1,-1,-1,-1,47,-1,49,-1,-1,-1,-1,-1,-1,-1,-1],"loss_changes":[5.4589018E13,7.5119146E12,5.8016955E12,2.352753E12,1.7125092E12,1.7950153E11,1.044172E12,8.908702E11,1.6547242E12,2.840194E11,4.5733433E11,0E0,1.8457664E11,1.4352908E10,0E0,1.701388E11,1.9871627E12,0E0,8.455004E11,0E0,2.0741987E11,0E0,4.991725E11,0E0,3.8027448E11,0E0,0E0,1.6207472E11,0E0,3.0645682E11,0E0,6.271659E11,0E0,0E0,1.8623234E11,0E0,0E0,0E0,0E0,0E0,4.183189E10,0E0,1.3587804E12,0E0,0E0,0E0,0E0,0E0,0E0,0E0,0E0],"parents":[2147483647,0,0,1,1,2,2,3,3,4,4,5,5,6,6,7,7,8,8,9,9,10,10,12,12,13,13,15,15,16,16,18,18,20,20,22,22,24,24,27,27,29,29,31,31,34,34,40,40,42,42],"right_children":[2,4,6,8,10,12,14,16,18,20,22,-1,24,26,-1,28,30,-1,32,-1,34,-1,36,-1,38,-1,-1,40,-1,42,-1,44,-1,-1,46,-1,-1,-1,-1,-1,48,-1,50,-1,-1,-1,-1,-1,-1,-1,-1],"split_conditions":[2.5E0,8.17823E5,7.888851E5,5E-1,5E-1,5.410176E5,1.1091388E6,6.639952E5,7.3118306E5,9.279839E5,8.867256E5,5.157584E3,6.4130194E5,1.0116668E6,1.7678754E4,6.263767E5,7.723581E5,4.045513E3,1.5E0,5.591266E3,9.86616E5,6.130693E3,1.01302975E6,1.1191832E4,7.013592E5,1.2739064E4,8.720165E3,4.6115575E5,1.7296144E3,6.664906E5,1.8605714E3,7.7023344E5,9.265745E3,2.7320505E3,1.1219255E6,1.0103929E4,6.718143E3,5.0592007E3,8.667795E3,1.9126307E3,4.8828494E5,6.6637324E3,6.856199E5,7.1153667E3,3.874894E3,5.1746157E3,2.7166343E3,3.8616367E3,2.7500474E3,1.8344863E3,4.8500537E3],"split_indices":[3,4,4,3,3,4,4,4,4,4,4,0,4,4,0,4,4,0,3,0,4,0,4,0,4,0,0,4,0,4,0,4,0,0,4,0,0,0,0,0,4,0,4,0,0,0,0,0,0,0,0],"split_type":[0,0,0,0,0,0,0,0,0,0,0,0,0,0,0,0,0,0,0,0,0,0,0,0,0,0,0,0,0,0,0,0,0,0,0,0,0,0,0,0,0,0,0,0,0,0,0,0,0,0,0],"sum_hessian":[8.61E2,7.34E2,1.27E2,5.35E2,1.99E2,4.7E1,8E1,2.88E2,2.47E2,9.6E1,1.03E2,7E0,4E1,7E1,1E1,1.43E2,1.45E2,2.04E2,4.3E1,5.1E1,4.5E1,6.1E1,4.2E1,9E0,3.1E1,6E1,1E1,1.12E2,3.1E1,1E2,4.5E1,3.4E1,9E0,1.4E1,3.1E1,1.4E1,2.8E1,1E1,2.1E1,2.9E1,8.3E1,8E0,9.2E1,1.3E1,2.1E1,2.3E1,8E0,1.1E1,7.2E1,2.1E1,7.1E1],"tree_param":{"num_deleted":"0","num_feature":"5","num_nodes":"51","size_leaf_vector":"0"}},{"base_weights":[5.574851E5,3.417973E5,7.814644E5,2.7575447E5,5.8707494E5,4.9263022E5,9.813161E5,3.3140262E5,2.2806969E5,7.985901E5,4.1035153E5,3.4541084E5,5.049672E5,9.2805144E5,1.759653E6,3.8173953E5,1.7705722E5,1.8600706E5,2.3824056E5,9.2502444E5,3.394282E5,3.2897647E5,4.9157544E5,5.299241E5,4.2246366E5,8.179439E5,1.2271858E6,2.6530588E5,5.51788E5,2.9846528E5,2.2542758E5,1.018785E6,6.356248E5,5.0832712E5,6.9938044E5,7.4546925E5,9.624947E5,1.2982544E6,8.055059E5,3.0493556E5,2.0995478E5,6.9491156E5,4.9670403E5,2.293792E5,1.4044436E5,9.2623025E5,5.815676E5,1.1485738E6,6.0733956E5,2.4715197E5,4.242997E5,1.3362581E5,3.2603428E5,2.0976698E5,2.5847266E5,7.46491E5,1.1455679E6],"categories":[],"categories_nodes":[],"categories_segments":[],"categories_sizes":[],"default_left":[1,1,1,1,1,1,1,1,1,1,1,0,1,1,0,1,0,0,1,1,0,0,0,1,0,1,1,1,1,0,1,0,0,0,0,1,1,0,0,1,1,0,0,1,0,1,0,0,0,0,0,0,0,0,0,0,0],"id":10,"left_children":[1,3,5,7,9,11,13,15,17,19,21,-1,23,25,-1,27,-1,-1,29,31,-1,-1,-1,33,-1,35,37,39,41,-1,43,-1,-1,-1,-1,45,47,-1,-1,49,51,-1,-1,53,-1,55,-1,-1,-1,-1,-1,-1,-1,-1,-1,-1,-1],"loss_changes":[3.9298447E13,6.6254275E12,2.2663905E13,8.0540284E11,2.9617113E12,1.2707063E11,8.151026E12,1.1055693E12,3.3547092E10,1.9501186E12,1.6876411E11,0E0,8.70402E10,6.341167E12,0E0,2.090936E12,0E0,0E0,4.306449E10,1.6646144E11,0E0,0E0,0E0,5.4377054E10,0E0,1.0215395E12,6.924041E11,8.73317E10,9.607053E9,0E0,8.756134E9,0E0,0E0,0E0,0E0,2.8684468E12,2.7389434E12,0E0,0E0,1.5723056E11,2.3996072E11,0E0,0E0,1.1398021E10,0E0,1.2342914E12,0E0,0E0,0E0,0E0,0E0,0E0,0E0,0E0,0E0,0E0,0E0],"parents":[2147483647,0,0,1,1,2,2,3,3,4,4,5,5,6,6,7,7,8,8,9,9,10,10,12,12,13,13,15,15,18,18,19,19,23,23,25,25,26,26,27,27,28,28,30,30,35,35,36,36,39,39,40,40,43,43,45,45],"right_children":[2,4,6,8,10,12,14,16,18,20,22,-1,24,26,-1,28,-1,-1,30,32,-1,-1,-1,34,-1,36,38,40,42,-1,44,-1,-1,-1,-1,46,48,-1,-1,50,52,-1,-1,54,-1,56,-1,-1,-1,-1,-1,-1,-1,-1,-1,-1,-1],"split_conditions":[2.5E0,8.300225E5,7.154409E5,1.5E0,5E-1,4.0541388E5,1.1091388E6,7.559286E5,4.6115575E5,1.0116668E6,9.517169E5,3.4541084E3,6.676874E5,3.5E0,1.759653E4,6.850923E5,1.7705721E3,1.8600706E3,5.1772925E5,9.86616E5,3.3942817E3,3.2897646E3,4.9157544E3,3.5E0,4.224636E3,8.845871E5,4.5E0,6.212999E5,6.8627006E5,2.9846528E3,7.914379E5,1.018785E4,6.356248E3,5.083271E3,6.993804E3,8.301592E5,1.0016229E6,1.2982544E4,8.0550586E3,6.157809E5,6.643255E5,6.949115E3,4.96704E3,6.8564975E5,1.4044436E3,7.901254E5,5.8156763E3,1.1485737E4,6.0733955E3,2.4715195E3,4.2429966E3,1.336258E3,3.2603428E3,2.0976697E3,2.5847266E3,7.4649097E3,1.1455679E4],"split_indices":[1,4,4,1,1,4,4,4,4,4,4,0,4,1,0,4,0,0,4,4,0,0,0,1,0,4,1,4,4,0,4,0,0,0,0,4,4,0,0,4,4,0,0,4,0,4,0,0,0,0,0,0,0,0,0,0,0],"split_type":[0,0,0,0,0,0,0,0,0,0,0,0,0,0,0,0,0,0,0,0,0,0,0,0,0,0,0,0,0,0,0,0,0,0,0,0,0,0,0,0,0,0,0,0,0,0,0,0,0,0,0,0,0,0,0,0,0],"sum_hessian":[8.18E2,4.18E2,4E2,3.31E2,8.7E1,1.65E2,2.35E2,1.5E2,1.81E2,3.8E1,4.9E1,1.5E1,1.5E2,2.22E2,1.3E1,1.12E2,3.8E1,3.9E1,1.42E2,2.9E1,9E0,2.7E1,2.2E1,1.11E2,3.9E1,1.65E2,5.7E1,6.8E1,4.4E1,2.1E1,1.21E2,2E1,9E0,1.02E2,9E0,1.14E2,5.1E1,4.7E1,1E1,3.7E1,3.1E1,9E0,3.5E1,1.14E2,7E0,5.2E1,6.2E1,3.2E1,1.9E1,2.7E1,1E1,2E1,1.1E1,7.3E1,4.1E1,3.1E1,2.1E1],"tree_param":{"num_deleted":"0","num_feature":"5","num_nodes":"57","size_leaf_vector":"0"}},{"base_weights":[5.6386494E5,4.1782138E5,1.1436839E6,4.0101884E5,1.1536931E6,7.0046175E5,1.4018808E6,3.5392544E5,4.9599084E5,5.356913E5,7.8389844E5,1.2621205E6,1.9459849E6,4.7296747E5,2.392071E5,4.6094834E5,6.010082E5,5.302848E5,8.530657E5,1.0007676E6,1.3387172E6,4.2641422E5,6.6015844E5,1.9716045E5,2.8903062E5],"categories":[],"categories_nodes":[],"categories_segments":[],"categories_sizes":[],"default_left":[1,1,1,1,0,1,1,1,1,0,1,1,0,1,1,0,0,0,0,0,0,0,0,0,0],"id":11,"left_children":[1,3,5,7,-1,9,11,13,15,-1,17,19,-1,21,23,-1,-1,-1,-1,-1,-1,-1,-1,-1,-1],"loss_changes":[6.8366014E13,7.586657E12,1.7671525E13,2.6779457E12,0E0,4.3244323E11,5.300426E12,5.759069E12,4.921051E11,0E0,2.3176046E11,3.418274E11,0E0,1.5485119E12,4.059908E11,0E0,0E0,0E0,0E0,0E0,0E0,0E0,0E0,0E0,0E0],"parents":[2147483647,0,0,1,1,2,2,3,3,5,5,6,6,7,7,8,8,10,10,11,11,13,13,14,14],"right_children":[2,4,6,8,-1,10,12,14,16,-1,18,20,-1,22,24,-1,-1,-1,-1,-1,-1,-1,-1,-1,-1],"split_conditions":[2.5E0,3.5E0,1.5E0,1.5E0,1.1536931E4,3.5E0,4.5E0,5E-1,1.5E0,5.356913E3,5E-1,2.5E0,1.9459848E4,5E-1,5E-1,4.6094834E3,6.0100815E3,5.302848E3,8.530656E3,1.0007676E4,1.3387172E4,4.264142E3,6.601584E3,1.9716045E3,2.8903062E3],"split_indices":[2,3,3,2,0,2,2,2,3,0,3,3,0,3,3,0,0,0,0,0,0,0,0,0,0],"split_type":[0,0,0,0,0,0,0,0,0,0,0,0,0,0,0,0,0,0,0,0,0,0,0,0,0],"sum_hessian":[8.12E2,6.5E2,1.62E2,6.37E2,1.3E1,6.1E1,1.01E2,4.29E2,2.08E2,2.3E1,3.8E1,8.3E1,1.8E1,2.09E2,2.2E2,1.6E2,4.8E1,1E1,2.8E1,2.2E1,6.1E1,1.7E2,3.9E1,1.22E2,9.8E1],"tree_param":{"num_deleted":"0","num_feature":"5","num_nodes":"25","size_leaf_vector":"0"}},{"base_weights":[5.659161E5,3.60576E5,9.191329E5,2.240478E5,4.8920338E5,5.3446656E5,1.195651E6,1.6175269E5,2.77779E5,3.2350416E5,5.612093E5,3.6578772E5,9.731923E5,1.0289051E6,1.7079862E6,2.0254064E5,1.4862545E5,3.7847738E5,2.6882556E5,3.827349E5,1.8804397E5,4.527808E5,6.541091E5,2.822135E5,4.7052644E5,7.6040894E5,1.329631E6,1.2850553E5,2.4333033E5,1.296565E5,1.6550989E5,3.230993E5,6.4501294E5,2.2471083E5,1.3409167E5,6.910391E5,4.3550172E5,5.1860697E5,2.2744633E5,6.604513E5,3.3221812E5,8.365789E5,5.1301806E5,1.6758239E5,3.2173434E5],"categories":[],"categories_nodes":[],"categories_segments":[],"categories_sizes":[],"default_left":[1,1,1,1,1,1,1,1,1,1,1,1,1,0,0,1,1,0,0,1,1,0,1,1,1,1,0,0,0,0,0,0,0,0,0,0,0,0,1,0,0,0,0,0,0],"id":12,"left_children":[1,3,5,7,9,11,13,15,17,19,21,23,25,-1,-1,27,29,-1,-1,31,33,-1,35,37,39,41,-1,-1,-1,-1,-1,-1,-1,-1,-1,-1,-1,-1,43,-1,-1,-1,-1,-1,-1],"loss_changes":[5.602404E13,8.5480964E12,2.9675607E13,7.617412E11,2.8370734E12,8.598474E12,1.2338569E13,3.0936924E10,1.36598E10,5.618784E11,1.4666013E12,6.4626885E11,1.4917965E12,0E0,0E0,4.422743E10,7.365591E9,0E0,0E0,6.362167E11,2.1302936E10,0E0,4.4178185E11,5.552679E11,7.787774E11,4.2268099E9,0E0,0E0,0E0,0E0,0E0,0E0,0E0,0E0,0E0,0E0,0E0,0E0,1.9443876E11,0E0,0E0,0E0,0E0,0E0,0E0],"parents":[2147483647,0,0,1,1,2,2,3,3,4,4,5,5,6,6,7,7,8,8,9,9,10,10,11,11,12,12,15,15,16,16,19,19,20,20,22,22,23,23,24,24,25,25,38,38],"right_children":[2,4,6,8,10,12,14,16,18,20,22,24,26,-1,-1,28,30,-1,-1,32,34,-1,36,38,40,42,-1,-1,-1,-1,-1,-1,-1,-1,-1,-1,-1,-1,44,-1,-1,-1,-1,-1,-1],"split_conditions":[2.01E2,9.1E1,5E-1,6.15E1,2.5E0,5.68635E2,3.8058002E2,1.5E0,1.5E0,1.72E2,1.465E2,3.055E2,2.3675E3,1.0289051E4,1.7079861E4,4.05E1,4.95E1,3.7847737E3,2.6882556E3,1.49E2,1.975E2,4.527808E3,3.5E0,2.295E2,3.905E2,1.0915E3,1.329631E4,1.2850553E3,2.4333032E3,1.296565E3,1.6550989E3,3.2309932E3,6.4501294E3,2.2471082E3,1.3409167E3,6.910391E3,4.355017E3,5.1860693E3,2.625E2,6.604513E3,3.3221812E3,8.365788E3,5.1301807E3,1.6758239E3,3.2173433E3],"split_indices":[0,0,1,0,1,0,0,1,1,0,0,0,0,0,0,0,0,0,0,0,0,0,1,0,0,0,0,0,0,0,0,0,0,0,0,0,0,0,0,0,0,0,0,0,0],"split_type":[0,0,0,0,0,0,0,0,0,0,0,0,0,0,0,0,0,0,0,0,0,0,0,0,0,0,0,0,0,0,0,0,0,0,0,0,0,0,0,0,0,0,0,0,0],"sum_hessian":[7.76E2,4.92E2,2.84E2,2.4E2,2.52E2,1.2E2,1.64E2,1.13E2,1.27E2,7.8E1,1.74E2,8.8E1,3.2E1,1.26E2,3.8E1,2.4E1,8.9E1,7E0,1.2E2,5.3E1,2.5E1,8.3E1,9.1E1,5.1E1,3.7E1,2.2E1,1E1,1E1,1.4E1,4.6E1,4.3E1,4.5E1,8E0,1.3E1,1.2E1,7.6E1,1.5E1,8E0,4.3E1,1.4E1,2.3E1,1.5E1,7E0,2.8E1,1.5E1],"tree_param":{"num_deleted":"0","num_feature":"5","num_nodes":"45","size_leaf_vector":"0"}},{"base_weights":[5.3227194E5,3.9428706E5,1.1357346E6,3.3403634E5,5.445663E5,7.315224E5,1.3746252E6,2.7922594E5,4.3152E5,4.7002656E5,7.5310644E5,4.660333E5,8.172859E5,1.1242061E6,1.5065904E6,3.4714697E5,2.0706638E5,4.100622E5,5.4430394E5,6.1852494E5,2.828103E5,9.9656306E5,7.1833206E5,3.7644847E5,2.3524325E5,4.2639606E5,3.1721712E5,6.0589275E5,3.5308825E5,5.77836E5,8.0273025E5,3.1322497E5,2.0851383E5,4.143669E5,7.9282725E5,3.2311866E5,4.6525672E5,1.9426986E5,3.4412306E5,3.574405E5,4.5629128E5,6.7719925E5,4.0274497E5,1.313237E5,2.9684247E5,3.7711738E5,1.10351664E5,6.962738E5,3.9915978E5,3.962848E5,2.7440622E5,1.8238611E5,4.7433056E5],"categories":[],"categories_nodes":[],"categories_segments":[],"categories_sizes":[],"default_left":[1,1,1,1,1,1,1,1,1,1,0,0,1,0,0,1,0,1,1,1,1,0,1,1,1,1,0,0,0,1,0,0,1,0,0,1,1,0,0,1,0,0,1,0,0,0,0,0,0,0,0,0,0],"id":13,"left_children":[1,3,5,7,9,11,13,15,17,19,-1,-1,21,-1,-1,23,-1,25,27,29,31,-1,33,35,37,39,-1,-1,-1,41,-1,-1,43,-1,-1,45,47,-1,-1,49,-1,-1,51,-1,-1,-1,-1,-1,-1,-1,-1,-1,-1],"loss_changes":[6.4668333E13,5.5948324E12,1.2995984E13,2.326656E12,2.4595776E12,8.9419835E11,1.2804875E12,1.3788607E12,1.712786E11,3.6060529E12,0E0,0E0,1.1484004E10,0E0,0E0,4.0656228E11,0E0,7.85698E10,5.6931385E10,9.828722E10,7.478968E10,0E0,3.5079796E11,4.0853045E11,8.482731E10,7.809165E10,0E0,0E0,0E0,8.5810427E11,0E0,0E0,1.0419759E11,0E0,0E0,8.430483E11,3.633945E11,0E0,0E0,2.0273168E10,0E0,0E0,3.236262E11,0E0,0E0,0E0,0E0,0E0,0E0,0E0,0E0,0E0,0E0],"parents":[2147483647,0,0,1,1,2,2,3,3,4,4,5,5,6,6,7,7,8,8,9,9,12,12,15,15,17,17,18,18,19,19,20,20,22,22,23,23,24,24,25,25,29,29,32,32,35,35,36,36,39,39,42,42],"right_children":[2,4,6,8,10,12,14,16,18,20,-1,-1,22,-1,-1,24,-1,26,28,30,32,-1,34,36,38,40,-1,-1,-1,42,-1,-1,44,-1,-1,46,48,-1,-1,50,-1,-1,52,-1,-1,-1,-1,-1,-1,-1,-1,-1,-1],"split_conditions":[2.5E0,8.300225E5,7.670869E5,1.5E0,1.5E0,5.5323394E5,3.5E0,5E-1,7.228494E5,5E-1,7.531064E3,4.660333E3,6.212999E5,1.1242061E4,1.5065903E4,7.286176E5,2.0706638E3,6.8710344E5,7.795481E5,1.1091388E6,9.09997E5,9.965631E3,6.546491E5,6.8512225E5,8.17823E5,4.8828494E5,3.1721711E3,6.0589272E3,3.5308823E3,9.1549025E5,8.0273022E3,3.1322495E3,9.941936E5,4.143669E3,7.9282725E3,6.662729E5,6.864529E5,1.9426986E3,3.4412305E3,4.6115575E5,4.5629126E3,6.771992E3,9.86616E5,1.313237E3,2.9684246E3,3.7711736E3,1.1035166E3,6.962738E3,3.9915977E3,3.9628481E3,2.744062E3,1.8238611E3,4.7433057E3],"split_indices":[2,4,4,2,2,4,2,2,4,2,0,0,4,0,0,4,0,4,4,4,4,0,4,4,4,4,0,0,0,4,0,0,4,0,0,4,4,0,0,4,0,0,4,0,0,0,0,0,0,0,0,0,0],"split_type":[0,0,0,0,0,0,0,0,0,0,0,0,0,0,0,0,0,0,0,0,0,0,0,0,0,0,0,0,0,0,0,0,0,0,0,0,0,0,0,0,0,0,0,0,0,0,0,0,0,0,0,0,0],"sum_hessian":[7.81E2,6.37E2,1.44E2,4.57E2,1.8E2,5.5E1,8.9E1,2.95E2,1.62E2,1.35E2,4.5E1,1.5E1,4E1,3.4E1,5.5E1,1.5E2,1.45E2,1.4E2,2.2E1,7.4E1,6.1E1,1.1E1,2.9E1,1.17E2,3.3E1,1.16E2,2.4E1,1.5E1,7E0,6.4E1,1E1,4.1E1,2E1,7E0,2.2E1,7.6E1,4.1E1,2.6E1,7E0,3.9E1,7.7E1,3.9E1,2.5E1,1.2E1,8E0,6E1,1.6E1,7E0,3.4E1,2.4E1,1.5E1,7E0,1.8E1],"tree_param":{"num_deleted":"0","num_feature":"5","num_nodes":"53","size_leaf_vector":"0"}},{"base_weights":[5.0561403E5,3.6414994E5,1.0692635E6,2.9169847E5,4.8133478E5,8.588158E5,1.1974662E6,3.8157538E5,2.2671653E5,3.6164888E5,5.677566E5,5.249553E5,9.0905956E5,8.2500406E5,1.2746488E6,3.0429712E5,2.1508952E5,3.4106988E5,4.9785834E5,5.3772644E5,6.955024E5,1.8957906E5,2.6903584E5],"categories":[],"categories_nodes":[],"categories_segments":[],"categories_sizes":[],"default_left":[1,1,1,1,1,1,1,0,1,1,1,0,0,0,0,0,1,0,0,0,0,0,0],"id":14,"left_children":[1,3,5,7,9,11,13,-1,15,17,19,-1,-1,-1,-1,-1,21,-1,-1,-1,-1,-1,-1],"loss_changes":[6.5392957E13,5.4716206E12,3.4232903E12,2.3138864E12,2.390879E12,6.298964E11,1.82318E12,0E0,1.5193866E11,1.3292588E11,1.7842989E11,0E0,0E0,0E0,0E0,0E0,2.4212564E11,0E0,0E0,0E0,0E0,0E0,0E0],"parents":[2147483647,0,0,1,1,2,2,3,3,4,4,5,5,6,6,8,8,9,9,10,10,16,16],"right_children":[2,4,6,8,10,12,14,-1,16,18,20,-1,-1,-1,-1,-1,22,-1,-1,-1,-1,-1,-1],"split_conditions":[2.5E0,2.5E0,3.5E0,5E-1,1.5E0,2.5E0,2.5E0,3.8157537E3,5E-1,3.5E0,3.5E0,5.249553E3,9.090596E3,8.25004E3,1.2746487E4,3.0429712E3,1.5E0,3.4106987E3,4.9785835E3,5.377264E3,6.9550234E3,1.8957905E3,2.6903584E3],"split_indices":[2,1,2,1,2,1,1,0,2,1,1,0,0,0,0,0,2,0,0,0,0,0,0],"split_type":[0,0,0,0,0,0,0,0,0,0,0,0,0,0,0,0,0,0,0,0,0,0,0],"sum_hessian":[8.24E2,6.6E2,1.64E2,4.1E2,2.5E2,6.5E1,9.9E1,1.7E2,2.4E2,1.07E2,1.43E2,1E1,5.5E1,1.9E1,8E1,2.8E1,2.12E2,9.6E1,1.1E1,1.2E2,2.3E1,1.47E2,6.5E1],"tree_param":{"num_deleted":"0","num_feature":"5","num_nodes":"23","size_leaf_vector":"0"}},{"base_weights":[5.184509E5,3.7767784E5,1.0809606E6,3.617418E5,9.994818E5,7.276701E5,1.2656631E6,3.129445E5,4.641895E5,5.2237094E5,8.12128E5,1.174882E6,1.744129E6,3.9631556E5,2.270141E5,4.3539666E5,5.4372456E5,3.736734E5,5.1535612E5,1.9614475E5,2.686185E5],"categories":[],"categories_nodes":[],"categories_segments":[],"categories_sizes":[],"default_left":[1,1,1,1,0,1,1,1,1,0,0,0,0,1,1,0,0,0,0,0,0],"id":15,"left_children":[1,3,5,7,-1,9,11,13,15,-1,-1,-1,-1,17,19,-1,-1,-1,-1,-1,-1],"loss_changes":[6.5078737E13,6.2081655E12,9.845877E12,3.0941968E12,0E0,5.9877674E11,2.598472E12,3.076568E12,2.3730114E11,0E0,0E0,0E0,0E0,4.0848536E11,2.298573E11,0E0,0E0,0E0,0E0,0E0,0E0],"parents":[2147483647,0,0,1,1,2,2,3,3,5,5,6,6,7,7,8,8,13,13,14,14],"right_children":[2,4,6,8,-1,10,12,14,16,-1,-1,-1,-1,18,20,-1,-1,-1,-1,-1,-1],"split_conditions":[2.5E0,3.5E0,1.5E0,1.5E0,9.994818E3,3.5E0,4.5E0,5E-1,1.5E0,5.2237095E3,8.12128E3,1.1748819E4,1.744129E4,5E-1,5E-1,4.3539663E3,5.4372456E3,3.736734E3,5.153561E3,1.9614475E3,2.686185E3],"split_indices":[2,3,3,2,0,2,2,2,3,0,0,0,0,3,3,0,0,0,0,0,0],"split_type":[0,0,0,0,0,0,0,0,0,0,0,0,0,0,0,0,0,0,0,0,0],"sum_hessian":[8.26E2,6.62E2,1.64E2,6.47E2,1.5E1,5.8E1,1.06E2,4.41E2,2.06E2,1.9E1,3.9E1,9.2E1,1.4E1,2.22E2,2.19E2,1.56E2,5E1,1.9E2,3.2E1,1.29E2,9E1],"tree_param":{"num_deleted":"0","num_feature":"5","num_nodes":"21","size_leaf_vector":"0"}},{"base_weights":[5.30533E5,4.1168638E5,1.1443042E6,3.2756903E5,5.0336022E5,7.221514E5,1.2275205E6,2.736051E5,4.8062116E5,3.8502434E5,6.331015E5,1.0539336E6,1.4654092E6,2.925953E5,1.784893E5,5.571649E5,3.8829406E5,3.1834022E5,4.3449988E5,5.5946644E5,8.143879E5,8.9213644E5,1.3369764E6,2.4176245E5,3.5168547E5,4.9884003E5,6.905693E5,3.0295103E5,4.5034625E5,3.306685E5,2.0267389E5,4.669294E5,2.6803134E5,5.0399734E5,7.7583244E5,1.0913195E6,6.0199456E5,1.0984131E6,6.265557E5,2.736362E5,1.5471528E5,5.8681356E5,3.276778E5,5.5545925E5,3.6307356E5,3.085911E5,4.170159E5,6.7735156E5,4.5267672E5,2.1547689E5,3.686813E5,1.1557075E5,1.701137E5,1.5711466E5,3.637628E5],"categories":[],"categories_nodes":[],"categories_segments":[],"categories_sizes":[],"default_left":[1,1,1,1,1,0,1,1,1,1,1,1,0,1,0,1,1,1,1,1,1,1,0,1,1,0,0,0,1,1,0,0,0,1,0,0,0,0,0,1,1,0,1,0,0,0,0,0,0,0,0,0,0,0,0],"id":16,"left_children":[1,3,5,7,9,-1,11,13,15,17,19,21,-1,23,-1,25,27,29,31,33,35,37,-1,39,41,-1,-1,-1,43,45,-1,-1,-1,47,-1,-1,-1,-1,-1,49,51,-1,53,-1,-1,-1,-1,-1,-1,-1,-1,-1,-1,-1,-1],"loss_changes":[5.8687004E13,5.08655E12,3.7155661E12,2.8253293E12,4.7306213E12,0E0,2.9153433E12,4.3004828E11,4.3382315E11,4.291486E11,1.5867807E12,1.82974E12,0E0,5.787993E11,0E0,2.8995224E10,1.0187388E11,4.27819E10,3.9310485E11,9.531661E11,1.8134052E12,1.7770301E12,0E0,2.961551E11,3.721994E11,0E0,0E0,0E0,1.8491638E10,9.426698E8,0E0,0E0,0E0,5.1187076E11,0E0,0E0,0E0,0E0,0E0,4.0700058E11,1.4366147E9,0E0,5.1524193E11,0E0,0E0,0E0,0E0,0E0,0E0,0E0,0E0,0E0,0E0,0E0,0E0],"parents":[2147483647,0,0,1,1,2,2,3,3,4,4,6,6,7,7,8,8,9,9,10,10,11,11,13,13,15,15,16,16,17,17,18,18,19,19,20,20,21,21,23,23,24,24,28,28,29,29,33,33,39,39,40,40,42,42],"right_children":[2,4,6,8,10,-1,12,14,16,18,20,22,-1,24,-1,26,28,30,32,34,36,38,-1,40,42,-1,-1,-1,44,46,-1,-1,-1,48,-1,-1,-1,-1,-1,50,52,-1,54,-1,-1,-1,-1,-1,-1,-1,-1,-1,-1,-1,-1],"split_conditions":[2.5E0,5E-1,7.364415E5,8.300225E5,7.117925E5,7.2215137E3,3.5E0,7.723581E5,9.279839E5,5.80961E5,1.5E0,8.845871E5,1.4654092E4,6.6547025E5,1.784893E3,8.310026E5,1.00025994E6,5.449706E5,6.8742875E5,9.86616E5,8.025786E5,8.300225E5,1.3369764E4,6.212999E5,6.701113E5,4.9884004E3,6.905693E3,3.0295103E3,1.01302975E6,1.5E0,2.0267389E3,4.669294E3,2.6803135E3,7.7023344E5,7.758324E3,1.0913194E4,6.0199453E3,1.0984131E4,6.2655566E3,5.554991E5,6.418103E5,5.8681353E3,6.856199E5,5.5545923E3,3.6307356E3,3.085911E3,4.170159E3,6.7735156E3,4.526767E3,2.1547688E3,3.686813E3,1.1557075E3,1.701137E3,1.5711465E3,3.637628E3],"split_indices":[3,3,4,4,4,0,3,4,4,4,3,4,0,4,0,4,4,4,4,4,4,4,0,4,4,0,0,0,4,3,0,0,0,4,0,0,0,0,0,4,4,0,4,0,0,0,0,0,0,0,0,0,0,0,0],"split_type":[0,0,0,0,0,0,0,0,0,0,0,0,0,0,0,0,0,0,0,0,0,0,0,0,0,0,0,0,0,0,0,0,0,0,0,0,0,0,0,0,0,0,0,0,0,0,0,0,0,0,0,0,0,0,0],"sum_hessian":[8.1E2,6.8E2,1.3E2,3.57E2,3.23E2,2.3E1,1.07E2,2.66E2,9.1E1,1.71E2,1.52E2,6.5E1,4.2E1,2.2E2,4.6E1,4.7E1,4.4E1,7.6E1,9.5E1,1.11E2,4.1E1,4.4E1,2.1E1,1.21E2,9.9E1,3.6E1,1.1E1,2.1E1,2.3E1,6.7E1,9E0,7.8E1,1.7E1,9.1E1,2E1,1.6E1,2.5E1,2.3E1,2.1E1,8.7E1,3.4E1,7E0,9.2E1,8E0,1.5E1,5.7E1,1E1,1.8E1,7.3E1,5.6E1,3.1E1,1.2E1,2.2E1,1.7E1,7.5E1],"tree_param":{"num_deleted":"0","num_feature":"5","num_nodes":"55","size_leaf_vector":"0"}},{"base_weights":[5.1175744E5,3.849011E5,1.0731711E6,3.6167834E5,1.0735888E6,8.1280306E5,1.3197805E6,3.1602488E5,4.58601E5,1.0482301E6,1.4676614E6,4.129122E5,2.1473831E5,3.7000556E5,6.106865E5,1.7627123E5,2.6144412E5],"categories":[],"categories_nodes":[],"categories_segments":[],"categories_sizes":[],"default_left":[1,1,1,1,0,0,1,1,0,0,0,1,1,0,0,0,0],"id":17,"left_children":[1,3,5,7,-1,-1,9,11,-1,-1,-1,13,15,-1,-1,-1,-1],"loss_changes":[5.9695683E13,1.0647031E13,8.879694E12,2.8153007E12,0E0,0E0,1.5938104E12,4.4058647E12,0E0,0E0,0E0,1.7512394E12,3.5995517E11,0E0,0E0,0E0,0E0],"parents":[2147483647,0,0,1,1,2,2,3,3,6,6,7,7,11,11,12,12],"right_children":[2,4,6,8,-1,-1,10,12,-1,-1,-1,14,16,-1,-1,-1,-1],"split_conditions":[2.5E0,3.5E0,2.5E0,1.5E0,1.0735888E4,8.1280303E3,3.5E0,5E-1,4.58601E3,1.0482301E4,1.4676613E4,5E-1,5E-1,3.7000557E3,6.1068647E3,1.7627123E3,2.6144412E3],"split_indices":[2,3,3,2,0,0,2,2,0,0,0,3,3,0,0,0,0],"split_type":[0,0,0,0,0,0,0,0,0,0,0,0,0,0,0,0,0],"sum_hessian":[8.43E2,6.89E2,1.54E2,6.68E2,2.1E1,7.7E1,7.7E1,4.57E2,2.11E2,3E1,4.7E1,2.32E2,2.25E2,1.93E2,3.9E1,1.26E2,9.9E1],"tree_param":{"num_deleted":"0","num_feature":"5","num_nodes":"17","size_leaf_vector":"0"}},{"base_weights":[5.247328E5,3.9985047E5,1.1516769E6,3.1099103E5,5.249634E5,8.330246E5,1.3123689E6,2.473947E5,3.7276894E5,4.83576E5,7.558614E5,1.2288429E6,1.6218734E6,2.0472873E5,3.1712078E5,3.3676022E5,3.952812E5,3.644883E5,5.4952125E5,1.01416094E6,5.904915E5,1.3162122E6,7.916183E5,1.568499E5,2.2139669E5,5.741165E5,2.8272822E5,3.1039244E5,4.3271978E5,5.783234E5,2.4984284E5,5.9987394E5,4.8008175E5,1.0767644E6,1.5132016E6,3.6585856E5,1.9984339E5,1.4110781E5,3.3765272E5,3.4231966E5,2.5815344E5,4.33398E5,7.040172E5,2.8757172E5,1.879935E5,5.499703E5,8.027465E5,2.813359E5,5.579283E5,8.557951E5,1.6050766E6,8.102281E4,2.1480533E5,6.560367E4,1.7417392E5,3.8009197E5,2.5711119E5,2.2301617E5,3.5432766E5,4.695832E5,6.3406956E5,1.0720985E6,6.545399E5],"categories":[],"categories_nodes":[],"categories_segments":[],"categories_sizes":[],"default_left":[1,1,1,1,1,0,1,1,1,1,1,1,0,1,1,1,0,1,1,0,0,1,0,0,1,0,1,1,0,1,1,1,1,1,0,0,1,1,1,0,0,0,0,1,0,0,0,0,1,1,0,0,0,0,0,0,0,0,0,0,0,0,0],"id":18,"left_children":[1,3,5,7,9,-1,11,13,15,17,19,21,-1,23,25,27,-1,29,31,-1,-1,33,-1,-1,35,-1,37,39,-1,41,43,45,47,49,-1,-1,51,53,55,-1,-1,-1,-1,57,-1,-1,-1,-1,59,61,-1,-1,-1,-1,-1,-1,-1,-1,-1,-1,-1,-1,-1],"loss_changes":[6.4836893E13,7.585617E12,5.9730244E12,1.5186065E12,2.3866848E12,0E0,3.3361494E11,5.449376E11,3.3875296E10,1.739466E12,1.1951753E12,1.823071E12,0E0,6.901989E10,5.09426E11,8.328734E10,0E0,2.0863947E12,2.6095282E11,0E0,0E0,1.2479229E12,0E0,0E0,2.1956657E11,0E0,4.8906528E11,3.004642E10,0E0,2.5958338E11,8.8282235E10,4.393093E11,9.415237E11,2.2453493E12,0E0,0E0,1.31929735E11,4.100273E10,6.9762286E10,0E0,0E0,0E0,0E0,7.612006E10,0E0,0E0,0E0,0E0,3.858655E10,3.430406E11,0E0,0E0,0E0,0E0,0E0,0E0,0E0,0E0,0E0,0E0,0E0,0E0,0E0],"parents":[2147483647,0,0,1,1,2,2,3,3,4,4,6,6,7,7,8,8,9,9,10,10,11,11,13,13,14,14,15,15,17,17,18,18,21,21,24,24,26,26,27,27,29,29,30,30,31,31,32,32,33,33,36,36,37,37,38,38,43,43,48,48,49,49],"right_children":[2,4,6,8,10,-1,12,14,16,18,20,22,-1,24,26,28,-1,30,32,-1,-1,34,-1,-1,36,-1,38,40,-1,42,44,46,48,50,-1,-1,52,54,56,-1,-1,-1,-1,58,-1,-1,-1,-1,60,62,-1,-1,-1,-1,-1,-1,-1,-1,-1,-1,-1,-1,-1],"split_conditions":[2.5E0,7.188114E5,7.888851E5,5E-1,1.5E0,8.330246E3,1.2149681E6,6.6431625E5,5.5323394E5,8.14707E5,8.025786E5,1.01302975E6,1.6218733E4,4.6115575E5,6.662729E5,1.5E0,3.9528118E3,7.683959E5,9.038776E5,1.0141609E4,5.904915E3,3.5E0,7.916183E3,1.568499E3,4.8828494E5,5.741165E3,6.8512225E5,4.6115575E5,4.3271978E3,5E-1,7.9854425E5,8.310026E5,9.86616E5,8.623435E5,1.5132016E4,3.6585854E3,5.206027E5,6.695719E5,6.920458E5,3.4231965E3,2.5815344E3,4.33398E3,7.040172E3,7.795481E5,1.8799349E3,5.499703E3,8.027465E3,2.813359E3,5E-1,8.300225E5,1.6050766E4,8.102281E2,2.1480532E3,6.560367E2,1.7417391E3,3.8009197E3,2.5711118E3,2.2301616E3,3.5432764E3,4.6958315E3,6.3406953E3,1.0720984E4,6.5453984E3],"split_indices":[3,4,4,3,3,0,4,4,4,4,4,4,0,4,4,3,0,4,4,0,0,3,0,0,4,0,4,4,0,3,4,4,4,4,0,0,4,4,4,0,0,0,0,4,0,0,0,0,3,4,0,0,0,0,0,0,0,0,0,0,0,0,0],"split_type":[0,0,0,0,0,0,0,0,0,0,0,0,0,0,0,0,0,0,0,0,0,0,0,0,0,0,0,0,0,0,0,0,0,0,0,0,0,0,0,0,0,0,0,0,0,0,0,0,0,0,0,0,0,0,0,0,0,0,0,0,0,0,0],"sum_hessian":[8.33E2,6.96E2,1.37E2,4.09E2,2.87E2,4.8E1,8.9E1,2.04E2,2.05E2,2.46E2,4.1E1,7.4E1,1.5E1,1.29E2,7.5E1,8.5E1,1.2E2,9E1,1.56E2,1.4E1,2.7E1,6E1,1.4E1,3.6E1,9.3E1,7E0,6.8E1,7E1,1.5E1,3E1,6E1,8.6E1,7E1,3E1,3E1,1E1,8.3E1,2E1,4.8E1,4E1,3E1,1.6E1,1.4E1,3.5E1,2.5E1,7.2E1,1.4E1,2.1E1,4.9E1,2.3E1,7E0,1E1,7.3E1,7E0,1.3E1,2.9E1,1.9E1,2E1,1.5E1,2.6E1,2.3E1,9E0,1.4E1],"tree_param":{"num_deleted":"0","num_feature":"5","num_nodes":"63","size_leaf_vector":"0"}},{"base_weights":[5.0786866E5,3.109291E5,7.20901E5,2.5033339E5,5.0720606E5,4.6364988E5,9.531455E5,3.0660684E5,2.003453E5,6.9607825E5,3.513531E5,4.3230597E5,6.362738E5,8.779224E5,1.7234686E6,2.2576136E5,3.7610266E5,1.01948875E6,4.7133797E5,2.4170248E5,6.568814E5,3.4973106E5,4.6701925E5,8.076345E5,4.5727612E5,1.1165162E6,7.6527894E5,3.1689884E5,1.8982256E5,5.473552E5,2.2964098E5,5.9514744E5,2.7317653E5,3.1524784E5,1.13870664E5,5.6414094E5,4.2160772E5,9.2913E5,1.3330312E6,6.412025E5,1.0306612E6,2.0450919E5,7.43034E4,6.0705225E5,3.8585678E5,3.0547012E5,1.6727584E5,7.06141E5,1.1637324E6,4.4026616E5,8.329667E5,1.1175438E6,7.770716E5,1.8342373E5,2.9227978E5,1.8293661E5,1.0525687E5,9.6620894E5,5.0609412E5],"categories":[],"categories_nodes":[],"categories_segments":[],"categories_sizes":[],"default_left":[1,1,1,1,1,1,1,1,0,1,1,1,1,1,0,1,1,0,1,1,0,0,1,0,0,1,1,0,1,1,1,0,0,0,0,0,0,1,0,1,1,1,0,0,0,0,1,0,0,0,1,0,0,0,0,0,0,0,0],"id":19,"left_children":[1,3,5,7,9,11,13,15,-1,17,19,21,23,25,-1,27,29,-1,31,33,-1,-1,35,-1,-1,37,39,-1,41,43,45,-1,-1,-1,-1,-1,-1,47,-1,49,51,53,-1,-1,-1,-1,55,-1,-1,-1,57,-1,-1,-1,-1,-1,-1,-1,-1],"loss_changes":[3.5563034E13,5.1656587E12,2.3993868E13,9.006198E11,2.8168044E12,7.8543376E11,1.088739E13,8.0841854E11,0E0,2.8629124E12,1.8178103E12,3.2109494E11,4.895361E11,4.440124E12,0E0,1.8877356E11,1.9811879E12,0E0,5.4891276E11,3.871673E11,0E0,0E0,2.7376851E11,0E0,0E0,1.2363298E12,3.8502285E12,0E0,8.1509745E10,1.32121625E11,1.7116981E11,0E0,0E0,0E0,0E0,0E0,0E0,1.0615343E12,0E0,3.332383E12,5.6954454E10,3.892301E10,0E0,0E0,0E0,0E0,7.9400796E9,0E0,0E0,0E0,1.6015614E12,0E0,0E0,0E0,0E0,0E0,0E0,0E0,0E0],"parents":[2147483647,0,0,1,1,2,2,3,3,4,4,5,5,6,6,7,7,9,9,10,10,11,11,12,12,13,13,15,15,16,16,18,18,19,19,22,22,25,25,26,26,28,28,29,29,30,30,37,37,39,39,40,40,41,41,46,46,50,50],"right_children":[2,4,6,8,10,12,14,16,-1,18,20,22,24,26,-1,28,30,-1,32,34,-1,-1,36,-1,-1,38,40,-1,42,44,46,-1,-1,-1,-1,-1,-1,48,-1,50,52,54,-1,-1,-1,-1,56,-1,-1,-1,58,-1,-1,-1,-1,-1,-1,-1,-1],"split_conditions":[2.5E0,8.300225E5,7.364415E5,1.5E0,5E-1,3.5E0,1.1091388E6,6.850923E5,2.0034529E3,8.7658556E5,9.941936E5,5.80961E5,6.6886194E5,8.300225E5,1.7234686E4,5.729707E5,7.332359E5,1.0194888E4,1.01302975E6,9.327104E5,6.5688135E3,3.4973105E3,6.157809E5,8.0763447E3,4.572761E3,7.901254E5,3.5E0,3.1689883E3,6.662729E5,7.013592E5,7.795481E5,5.951474E3,2.7317651E3,3.1524783E3,1.1387067E3,5.641409E3,4.216077E3,3.5E0,1.33303125E4,8.334119E5,9.791429E5,6.624769E5,7.43034E2,6.0705225E3,3.8585676E3,3.0547012E3,8.025786E5,7.0614097E3,1.1637323E4,4.4026616E3,1.01302975E6,1.11754375E4,7.7707163E3,1.8342373E3,2.9227979E3,1.8293661E3,1.0525686E3,9.662089E3,5.060941E3],"split_indices":[1,4,4,1,1,1,4,4,0,4,4,4,4,4,0,4,4,0,4,4,0,0,4,0,0,4,1,0,4,4,4,0,0,0,0,0,0,1,0,4,4,4,0,0,0,0,4,0,0,0,4,0,0,0,0,0,0,0,0],"split_type":[0,0,0,0,0,0,0,0,0,0,0,0,0,0,0,0,0,0,0,0,0,0,0,0,0,0,0,0,0,0,0,0,0,0,0,0,0,0,0,0,0,0,0,0,0,0,0,0,0,0,0,0,0,0,0,0,0,0,0],"sum_hessian":[8.52E2,4.44E2,4.08E2,3.41E2,1.03E2,1.95E2,2.13E2,1.58E2,1.83E2,4.5E1,5.8E1,1.68E2,2.7E1,1.96E2,1.7E1,7.5E1,8.3E1,1.7E1,2.8E1,4.4E1,1.4E1,5.3E1,1.15E2,1.2E1,1.5E1,6E1,1.36E2,1.9E1,5.6E1,3.7E1,4.6E1,1.6E1,1.2E1,2.7E1,1.7E1,3.3E1,8.2E1,3.5E1,2.5E1,9.5E1,4.1E1,4.9E1,7E0,2.5E1,1.2E1,1.9E1,2.7E1,2E1,1.5E1,4.8E1,4.7E1,2.8E1,1.3E1,4.2E1,7E0,2E1,7E0,3.2E1,1.5E1],"tree_param":{"num_deleted":"0","num_feature":"5","num_nodes":"59","size_leaf_vector":"0"}},{"base_weights":[5.126812E5,3.7636322E5,7.739919E5,2.705159E5,5.201176E5,5.1805222E5,9.2867756E5,3.70314E5,2.0632564E5,4.2315044E5,9.3873644E5,6.5919944E5,4.0228844E5,8.2400706E5,1.5048789E6,4.088082E5,1.4970386E5,1.6227945E5,2.202034E5,4.0279466E5,5.4220094E5,8.0111456E5,1.2662622E6,8.65922E5,4.343778E5,2.0480542E5,5.1856503E5,7.4572556E5,1.03170156E6,2.8419778E5,5.401957E5,2.3854139E5,1.8706375E5,6.0433344E5,1.1397375E6,5.4596956E5,3.0770078E5,1.4105717E5,2.3790044E5,6.214568E5,9.0965206E5,1.1339521E6,6.217796E5,4.2285878E5,1.19604125E5,7.34295E5,3.4765572E5,2.0172581E5,5.16575E5,1.03393156E6,5.325141E5,1.092154E6,6.086668E5,8.177452E4,1.3397589E5,2.772645E5,1.7117536E5,7.051763E5,4.123579E5],"categories":[],"categories_nodes":[],"categories_segments":[],"categories_sizes":[],"default_left":[1,1,1,1,1,1,1,1,1,1,1,1,1,1,0,1,0,0,1,0,0,1,0,0,1,1,0,1,1,1,1,1,0,0,0,0,0,0,0,1,1,0,0,0,1,0,0,1,0,0,0,0,1,0,0,0,0,0,0],"id":20,"left_children":[1,3,5,7,9,11,13,15,17,19,21,23,25,27,-1,29,-1,-1,31,-1,-1,33,-1,-1,35,37,-1,39,41,43,45,47,-1,-1,-1,-1,-1,-1,-1,49,51,-1,-1,-1,53,-1,-1,55,-1,-1,-1,-1,57,-1,-1,-1,-1,-1,-1],"loss_changes":[2.9523773E13,8.258534E12,1.0841689E13,1.9735354E12,9.060775E12,1.5321834E12,9.43507E12,9.9183336E11,8.4685095E10,2.444692E11,9.2379126E11,1.854694E12,1.340443E12,1.7019479E12,0E0,1.5655638E12,0E0,0E0,4.4711805E10,0E0,0E0,1.5101613E12,0E0,0E0,1.8540764E11,1.9186123E10,0E0,1.7569772E12,9.2960876E11,1.2274966E12,1.6133118E12,8.272662E11,0E0,0E0,0E0,0E0,0E0,0E0,0E0,1.944106E12,1.9169689E12,0E0,0E0,0E0,3.7234934E9,0E0,0E0,1.4177377E11,0E0,0E0,0E0,0E0,8.812757E10,0E0,0E0,0E0,0E0,0E0,0E0],"parents":[2147483647,0,0,1,1,2,2,3,3,4,4,5,5,6,6,7,7,8,8,9,9,10,10,11,11,12,12,13,13,15,15,18,18,21,21,24,24,25,25,27,27,28,28,29,29,30,30,31,31,39,39,40,40,44,44,47,47,52,52],"right_children":[2,4,6,8,10,12,14,16,18,20,22,24,26,28,-1,30,-1,-1,32,-1,-1,34,-1,-1,36,38,-1,40,42,44,46,48,-1,-1,-1,-1,-1,-1,-1,50,52,-1,-1,-1,54,-1,-1,56,-1,-1,-1,-1,58,-1,-1,-1,-1,-1,-1],"split_conditions":[8.17823E5,2.5E0,2.5E0,5E-1,7.364415E5,5E-1,1.1091388E6,7.807972E5,4.6115575E5,3.5E0,7.901254E5,9.86616E5,8.4317E5,3.5E0,1.5048788E4,6.831075E5,1.4970386E3,1.6227946E3,6.861276E5,4.0279465E3,5.4220093E3,3.5E0,1.2662622E4,8.65922E3,1.01302975E6,1.5E0,5.1856504E3,8.845871E5,9.96631E5,6.212999E5,7.013592E5,6.857785E5,1.8706375E3,6.0433345E3,1.1397375E4,5.4596953E3,3.0770078E3,1.4105717E3,2.3790044E3,8.301592E5,1.0116668E6,1.1339521E4,6.217796E3,4.228588E3,6.383189E5,7.3429497E3,3.4765571E3,5.1772925E5,5.16575E3,1.0339315E4,5.325141E3,1.092154E4,1.0277193E6,8.1774524E2,1.3397589E3,2.772645E3,1.7117535E3,7.051763E3,4.123579E3],"split_indices":[4,1,1,1,4,1,4,4,4,1,4,4,4,1,0,4,0,0,4,0,0,1,0,0,4,1,0,4,4,4,4,4,0,0,0,0,0,0,0,4,4,0,0,0,4,0,0,4,0,0,0,0,4,0,0,0,0,0,0],"split_type":[0,0,0,0,0,0,0,0,0,0,0,0,0,0,0,0,0,0,0,0,0,0,0,0,0,0,0,0,0,0,0,0,0,0,0,0,0,0,0,0,0,0,0,0,0,0,0,0,0,0,0,0,0,0,0,0,0,0,0],"sum_hessian":[8.36E2,5.51E2,2.85E2,3.19E2,2.32E2,1.09E2,1.76E2,1.23E2,1.96E2,1.9E2,4.2E1,4.7E1,6.2E1,1.51E2,2.5E1,1.04E2,1.9E1,5E1,1.46E2,1.66E2,2.4E1,3.2E1,1E1,2.3E1,2.4E1,2.4E1,3.8E1,1.13E2,3.8E1,5.5E1,4.9E1,9E1,5.6E1,2.2E1,1E1,1.1E1,1.3E1,1E1,1.4E1,6.7E1,4.6E1,2.9E1,9E0,2.9E1,2.6E1,2.3E1,2.6E1,8.1E1,9E0,1E1,5.7E1,2.7E1,1.9E1,9E0,1.7E1,2.1E1,6E1,1.1E1,8E0],"tree_param":{"num_deleted":"0","num_feature":"5","num_nodes":"59","size_leaf_vector":"0"}},{"base_weights":[4.818279E5,3.1013303E5,7.780953E5,1.951919E5,4.2606878E5,4.051755E5,1.0886699E6,1.4402744E5,2.3998227E5,3.261048E5,4.6361428E5,3.2450644E5,1.02016275E6,8.9548806E5,1.6468941E6,1.3134964E5,1.7432355E5,2.1896067E5,2.71548E5,4.002015E5,1.8478903E5,3.890623E5,5.37991E5,2.4876111E5,4.1609853E5,1.1671076E6,8.4290044E5,1.8129512E6,1.2637418E6,1.6243788E5,1.1375318E5,2.9393944E5,5.8293356E5,2.2553292E5,1.1166944E5,3.98692E5,2.29688E5,5.758633E5,4.516818E5,2.8809306E5,1.3952192E5,4.4320638E5,1.9805061E5,4.0997916E5,8.9172775E5,9.356978E4,1.9405592E5,4.3619678E5,2.388626E5,7.2041056E5,4.1465866E5,1.0562189E5,3.4723012E5,3.4808256E5,4.4599134E5,3.4492203E5,5.2148597E5,2.2095245E5,5.182578E5,7.79608E4,2.2981366E5,3.9155572E5,5.6983294E5,5.9512706E5,9.2619375E5,4.4050044E5,2.9435406E5,3.7802238E5,1.530237E5,4.3514447E5,2.2599277E5],"categories":[],"categories_nodes":[],"categories_segments":[],"categories_sizes":[],"default_left":[1,1,1,1,1,1,1,1,1,1,1,1,0,1,1,1,0,0,0,1,1,1,1,1,1,0,1,0,0,1,0,1,1,1,0,1,0,0,1,1,1,1,0,0,1,0,0,0,0,0,0,0,0,1,0,0,0,1,0,0,0,1,0,0,0,0,0,0,0,0,0],"id":21,"left_children":[1,3,5,7,9,11,13,15,17,19,21,23,-1,25,27,29,-1,-1,-1,31,33,35,37,39,41,-1,43,-1,-1,45,-1,47,49,51,-1,53,-1,-1,55,57,59,61,-1,-1,63,-1,-1,-1,-1,-1,-1,-1,-1,65,-1,-1,-1,67,-1,-1,-1,69,-1,-1,-1,-1,-1,-1,-1,-1,-1],"loss_changes":[4.269095E13,7.059458E12,3.5347078E13,5.864801E11,8.471655E11,6.7136337E12,1.6642143E13,2.6650083E10,3.543086E10,7.218455E11,8.497702E11,7.775757E11,0E0,8.3028764E11,3.811448E11,3.3491124E10,0E0,0E0,0E0,7.801091E11,5.8231816E10,6.0363375E10,4.3885003E10,2.6915897E11,2.4322874E11,0E0,1.9596375E12,0E0,0E0,5.1521454E10,0E0,1.543669E11,9.455272E10,2.1140315E11,0E0,6.4986546E10,0E0,0E0,6.605295E10,6.890665E11,9.8811216E10,9.735504E10,0E0,0E0,4.5061924E11,0E0,0E0,0E0,0E0,0E0,0E0,0E0,0E0,1.1364519E11,0E0,0E0,0E0,3.902754E11,0E0,0E0,0E0,1.7589495E11,0E0,0E0,0E0,0E0,0E0,0E0,0E0,0E0,0E0],"parents":[2147483647,0,0,1,1,2,2,3,3,4,4,5,5,6,6,7,7,8,8,9,9,10,10,11,11,13,13,14,14,15,15,19,19,20,20,21,21,22,22,23,23,24,24,26,26,29,29,31,31,32,32,33,33,35,35,38,38,39,39,40,40,41,41,44,44,53,53,57,57,61,61],"right_children":[2,4,6,8,10,12,14,16,18,20,22,24,-1,26,28,30,-1,-1,-1,32,34,36,38,40,42,-1,44,-1,-1,46,-1,48,50,52,-1,54,-1,-1,56,58,60,62,-1,-1,64,-1,-1,-1,-1,-1,-1,-1,-1,66,-1,-1,-1,68,-1,-1,-1,70,-1,-1,-1,-1,-1,-1,-1,-1,-1],"split_conditions":[2.01625E2,9.1E1,5E-1,6.05E1,2.5E0,1.084E3,3.75E2,5.3735E1,7.65E1,1.72E2,1.475E2,3.325E2,1.0201627E4,2.055E2,4.9022998E2,1.5E0,1.7432355E3,2.1896067E3,2.71548E3,1.325E2,1.975E2,3.5E0,1.745E2,2.84E2,9.53E2,1.1671076E4,2.155E2,1.8129512E4,1.2637417E4,3.85E1,1.1375317E3,9.8E1,5E-1,1.875E2,1.1166943E3,1.24E2,2.29688E3,5.758633E3,1.835E2,2.62E2,3.001E2,5.68635E2,1.9805061E3,4.0997915E3,2.5E0,9.356978E2,1.9405592E3,4.361968E3,2.388626E3,7.2041055E3,4.1465864E3,1.0562189E3,3.4723013E3,1.045E2,4.4599136E3,3.4492202E3,5.2148594E3,2.3062E2,5.182578E3,7.79608E2,2.2981365E3,4.79E2,5.698329E3,5.9512705E3,9.2619375E3,4.4050044E3,2.9435405E3,3.7802236E3,1.5302369E3,4.351445E3,2.2599275E3],"split_indices":[0,0,1,0,1,0,0,0,0,0,0,0,0,0,0,1,0,0,0,0,0,1,0,0,0,0,0,0,0,0,0,0,1,0,0,0,0,0,0,0,0,0,0,0,1,0,0,0,0,0,0,0,0,0,0,0,0,0,0,0,0,0,0,0,0,0,0,0,0,0,0],"split_type":[0,0,0,0,0,0,0,0,0,0,0,0,0,0,0,0,0,0,0,0,0,0,0,0,0,0,0,0,0,0,0,0,0,0,0,0,0,0,0,0,0,0,0,0,0,0,0,0,0,0,0,0,0,0,0,0,0,0,0,0,0,0,0,0,0,0,0,0,0,0,0],"sum_hessian":[8.43E2,5.35E2,3.08E2,2.7E2,2.65E2,1.41E2,1.67E2,1.28E2,1.42E2,7.5E1,1.9E2,1.26E2,1.5E1,1.26E2,4.1E1,9.4E1,3.4E1,9E1,5.2E1,4.8E1,2.7E1,9.8E1,9.2E1,7.1E1,5.5E1,1.7E1,1.09E2,2.6E1,1.5E1,3.1E1,6.3E1,3.2E1,1.6E1,1.6E1,1.1E1,9.1E1,7E0,6E1,3.2E1,5.1E1,2E1,4.8E1,7E0,1.2E1,9.7E1,1.1E1,2E1,7E0,2.5E1,7E0,9E0,9E0,7E0,4.8E1,4.3E1,1.5E1,1.7E1,4.1E1,1E1,1.3E1,7E0,3.7E1,1.1E1,1.2E1,8.5E1,1.5E1,3.3E1,1.1E1,3E1,2.8E1,9E0],"tree_param":{"num_deleted":"0","num_feature":"5","num_nodes":"71","size_leaf_vector":"0"}},{"base_weights":[4.6305778E5,3.6134122E5,1.079777E6,2.5638595E5,5.0995972E5,6.272887E5,1.1113835E6,3.111398E5,2.158897E5,4.443053E5,7.728406E5,1.03657725E6,1.2738209E6,1.8693805E5,2.5588973E5,3.251626E5,4.6373656E5,5.4138806E5,1.1548578E6,2.3561566E5,1.7503184E5,4.8598525E5,3.537559E5,3.7314166E5,6.467881E5],"categories":[],"categories_nodes":[],"categories_segments":[],"categories_sizes":[],"default_left":[1,1,1,1,1,0,1,0,1,1,1,0,0,1,0,0,1,1,0,0,0,0,0,0,0],"id":22,"left_children":[1,3,5,7,9,-1,11,-1,13,15,17,-1,-1,19,-1,-1,21,23,-1,-1,-1,-1,-1,-1,-1],"loss_changes":[5.2115334E13,1.1100016E13,9.904178E11,8.729731E11,4.782639E12,0E0,4.085252E9,0E0,2.382071E11,4.0483003E11,4.5030635E12,0E0,0E0,4.395578E10,0E0,0E0,3.2725218E11,4.3251873E11,0E0,0E0,0E0,0E0,0E0,0E0,0E0],"parents":[2147483647,0,0,1,1,2,2,3,3,4,4,6,6,8,8,9,9,10,10,13,13,16,16,17,17],"right_children":[2,4,6,8,10,-1,12,-1,14,16,18,-1,-1,20,-1,-1,22,24,-1,-1,-1,-1,-1,-1,-1],"split_conditions":[2.5E0,2.5E0,2.5E0,5E-1,3.5E0,6.2728867E3,3.5E0,3.111398E3,5E-1,5E-1,1.5E0,1.0365772E4,1.2738208E4,1.5E0,2.5588972E3,3.251626E3,1.5E0,5E-1,1.1548577E4,2.3561565E3,1.7503184E3,4.8598525E3,3.537559E3,3.7314165E3,6.4678813E3],"split_indices":[3,1,1,1,1,0,1,0,3,3,3,0,0,1,0,0,3,3,0,0,0,0,0,0,0],"split_type":[0,0,0,0,0,0,0,0,0,0,0,0,0,0,0,0,0,0,0,0,0,0,0,0,0],"sum_hessian":[8.36E2,7.19E2,1.17E2,4.23E2,2.96E2,9E0,1.08E2,1.77E2,2.46E2,2.39E2,5.7E1,7.9E1,2.9E1,1.46E2,1E2,3.6E1,2.03E2,3.7E1,2E1,2.5E1,1.21E2,1.66E2,3.7E1,1.6E1,2.1E1],"tree_param":{"num_deleted":"0","num_feature":"5","num_nodes":"25","size_leaf_vector":"0"}},{"base_weights":[4.991345E5,3.7247472E5,1.0325353E6,2.8580528E5,4.9642975E5,8.8001275E5,1.294259E6,3.5922784E5,2.1397839E5,4.0775056E5,5.431496E5,6.674968E5,1.0621775E6,1.152594E6,1.7739922E6,3.7009828E5,2.801887E5,1.7220542E5,2.9676806E5,5.634255E5,3.0227606E5,5.204838E5,6.388803E5,2.936274E5,7.2558325E5,4.6241444E5,2.6366462E5],"categories":[],"categories_nodes":[],"categories_segments":[],"categories_sizes":[],"default_left":[1,1,1,1,1,1,1,1,1,1,1,1,0,0,0,0,0,0,1,0,0,0,0,0,0,0,0],"id":23,"left_children":[1,3,5,7,9,11,13,15,17,19,21,23,-1,-1,-1,-1,-1,-1,25,-1,-1,-1,-1,-1,-1,-1,-1],"loss_changes":[5.156937E13,6.551075E12,4.7290945E12,1.869137E12,8.350188E11,3.0074418E12,1.4893051E12,5.1814334E10,6.025259E11,1.3403066E12,2.332033E10,8.076342E11,0E0,0E0,0E0,0E0,0E0,0E0,2.1805295E11,0E0,0E0,0E0,0E0,0E0,0E0,0E0,0E0],"parents":[2147483647,0,0,1,1,2,2,3,3,4,4,5,5,6,6,7,7,8,8,9,9,10,10,11,11,18,18],"right_children":[2,4,6,8,10,12,14,16,18,20,22,24,-1,-1,-1,-1,-1,-1,26,-1,-1,-1,-1,-1,-1,-1,-1],"split_conditions":[2.5E0,2.5E0,3.5E0,5E-1,1.5E0,3.5E0,4.5E0,1.5E0,1.5E0,5E-1,3.5E0,2.5E0,1.0621774E4,1.1525939E4,1.7739922E4,3.7009827E3,2.8018867E3,1.7220542E3,1.5E0,5.634255E3,3.0227605E3,5.204838E3,6.388803E3,2.936274E3,7.2558325E3,4.624144E3,2.6366462E3],"split_indices":[2,1,1,2,2,2,2,1,2,2,1,1,0,0,0,0,0,0,1,0,0,0,0,0,0,0,0],"split_type":[0,0,0,0,0,0,0,0,0,0,0,0,0,0,0,0,0,0,0,0,0,0,0,0,0,0,0],"sum_hessian":[7.68E2,6.22E2,1.46E2,3.68E2,2.54E2,9.5E1,5.1E1,1.8E2,1.88E2,9.1E1,1.63E2,4.6E1,4.9E1,4.2E1,9E0,1.55E2,2.5E1,1.27E2,6.1E1,3.5E1,5.6E1,1.37E2,2.6E1,7E0,3.9E1,8E0,5.3E1],"tree_param":{"num_deleted":"0","num_feature":"5","num_nodes":"27","size_leaf_vector":"0"}},{"base_weights":[4.7995475E5,3.6211012E5,9.9616806E5,3.2401766E5,9.6506806E5,7.2451394E5,1.4933109E6,1.9093388E5,4.2404666E5,6.339003E5,1.0765105E6,4.9829078E5,8.183707E5,1.176572E6,1.6930241E6,1.5784155E5,2.9188112E5,3.3571706E5,5.609244E5,3.268399E5,5.6437025E5,8.6830794E5,6.0492656E5,1.2756525E5,2.0700486E5,4.7629788E5,2.6087736E5,3.195089E5,4.3613988E5,4.9257438E5,1.0063787E6,6.7922056E5,1.04535344E6,7.215044E4,1.3490297E5,1.5620355E5,2.7477912E5,3.653605E5,2.4713077E5,7.2593144E5,2.9841625E5,3.1658888E5,5.2705506E5,8.9512806E5,5.481011E5,1.1435831E6,6.936674E5,1.1914284E5,1.4586794E5,2.9176288E5,4.350623E5,1.4315864E5,2.7692972E5],"categories":[],"categories_nodes":[],"categories_segments":[],"categories_sizes":[],"default_left":[1,1,1,1,1,1,1,1,1,0,0,1,1,0,0,1,1,1,1,0,0,1,0,1,0,0,1,1,1,1,0,1,1,0,1,0,0,1,1,0,0,0,0,0,0,0,0,0,0,0,0,0,0],"id":24,"left_children":[1,3,5,7,9,11,13,15,17,-1,-1,19,21,-1,-1,23,25,27,29,-1,-1,31,-1,33,-1,-1,35,37,39,41,-1,43,45,-1,47,-1,-1,49,51,-1,-1,-1,-1,-1,-1,-1,-1,-1,-1,-1,-1,-1,-1],"loss_changes":[4.7940643E13,1.4570677E13,1.8770567E13,8.0528036E12,7.200278E11,1.6517714E12,1.234132E12,8.358409E11,4.0191373E12,0E0,0E0,1.6675242E11,1.888779E11,0E0,0E0,2.7277866E11,2.4167213E11,2.0896861E11,3.6145967E12,0E0,0E0,1.03078376E12,0E0,4.1907126E10,0E0,0E0,4.0021787E10,5.3361403E11,8.609711E11,5.5524406E11,0E0,3.020507E11,7.0384615E10,0E0,1.8027643E9,0E0,0E0,4.5274366E11,1.9582314E11,0E0,0E0,0E0,0E0,0E0,0E0,0E0,0E0,0E0,0E0,0E0,0E0,0E0,0E0],"parents":[2147483647,0,0,1,1,2,2,3,3,4,4,5,5,6,6,7,7,8,8,11,11,12,12,15,15,16,16,17,17,18,18,21,21,23,23,26,26,27,27,28,28,29,29,31,31,32,32,34,34,37,37,38,38],"right_children":[2,4,6,8,10,12,14,16,18,-1,-1,20,22,-1,-1,24,26,28,30,-1,-1,32,-1,34,-1,-1,36,38,40,42,-1,44,46,-1,48,-1,-1,50,52,-1,-1,-1,-1,-1,-1,-1,-1,-1,-1,-1,-1,-1,-1],"split_conditions":[2.5E0,5.405E2,2.765E2,9.1E1,9.175E2,1.58E2,3.57E2,1.5E0,1.5E0,6.339003E3,1.07651045E4,1.2863E2,2.475E2,1.176572E4,1.693024E4,6.3585E1,5.75E1,3.985E2,2.575E2,3.268399E3,5.643702E3,2.01E2,6.0492656E3,5E-1,2.0700486E3,4.7629785E3,6.25E1,2.445E2,4.205E2,1.155E2,1.0063787E4,1.655E2,2.265E2,7.2150433E2,4.65E1,1.5620354E3,2.7477913E3,1.5785E2,2.52E2,7.2593145E3,2.9841624E3,3.1658887E3,5.2705503E3,8.95128E3,5.481011E3,1.1435831E4,6.936674E3,1.1914285E3,1.4586793E3,2.9176287E3,4.350623E3,1.4315864E3,2.769297E3],"split_indices":[2,0,0,0,0,0,0,2,2,0,0,0,0,0,0,0,0,0,0,0,0,0,0,2,0,0,0,0,0,0,0,0,0,0,0,0,0,0,0,0,0,0,0,0,0,0,0,0,0,0,0,0,0],"split_type":[0,0,0,0,0,0,0,0,0,0,0,0,0,0,0,0,0,0,0,0,0,0,0,0,0,0,0,0,0,0,0,0,0,0,0,0,0,0,0,0,0,0,0,0,0,0,0,0,0,0,0,0,0],"sum_hessian":[7.93E2,6.47E2,1.46E2,6.1E2,3.7E1,9.6E1,5E1,2.63E2,3.47E2,1.1E1,2.6E1,3E1,6.6E1,2.2E1,2.8E1,2E2,6.3E1,2.13E2,1.34E2,1E1,2E1,5.1E1,1.5E1,1.26E2,7.4E1,7E0,5.6E1,1.87E2,2.6E1,1.18E2,1.6E1,2.7E1,2.4E1,1.6E1,1.1E2,8E0,4.8E1,1.12E2,7.5E1,7E0,1.9E1,2.1E1,9.7E1,8E0,1.9E1,1.7E1,7E0,5E1,6E1,5.7E1,5.5E1,1.8E1,5.7E1],"tree_param":{"num_deleted":"0","num_feature":"5","num_nodes":"53","size_leaf_vector":"0"}},{"base_weights":[4.746632E5,3.688758E5,1.1071579E6,3.3612644E5,8.0379844E5,1.0334764E6,1.3665609E6,2.8800306E5,4.2646653E5,5.968401E5,1.0513219E6,3.9765716E5,2.1408011E5,4.442405E5,3.1198434E5,3.9300553E5,6.9957206E5,3.785609E5,7.4658406E5,1.7918777E5,2.6454594E5,3.3473438E5,4.6528694E5],"categories":[],"categories_nodes":[],"categories_segments":[],"categories_sizes":[],"default_left":[1,1,1,1,1,0,0,1,1,1,0,1,1,1,0,0,0,0,0,0,0,0,0],"id":25,"left_children":[1,3,5,7,9,-1,-1,11,13,15,-1,17,19,21,-1,-1,-1,-1,-1,-1,-1,-1,-1],"loss_changes":[5.4926122E13,9.842656E12,8.430551E11,2.7552047E12,1.8826553E12,0E0,0E0,3.4409609E12,3.253354E11,3.3233358E11,0E0,8.767689E11,4.1394425E11,2.9367258E11,0E0,0E0,0E0,0E0,0E0,0E0,0E0,0E0,0E0],"parents":[2147483647,0,0,1,1,2,2,3,3,4,4,7,7,8,8,9,9,11,11,12,12,13,13],"right_children":[2,4,6,8,10,-1,-1,12,14,16,-1,18,20,22,-1,-1,-1,-1,-1,-1,-1,-1,-1],"split_conditions":[2.5E0,3.5E0,3.5E0,2.5E0,1.5E0,1.0334764E4,1.3665608E4,5E-1,1.5E0,5E-1,1.0513219E4,5E-1,5E-1,5E-1,3.1198433E3,3.9300552E3,6.9957207E3,3.785609E3,7.4658403E3,1.7918776E3,2.6454592E3,3.3473438E3,4.652869E3],"split_indices":[3,1,1,1,3,0,0,1,3,3,0,3,3,3,0,0,0,0,0,0,0,0,0],"split_type":[0,0,0,0,0,0,0,0,0,0,0,0,0,0,0,0,0,0,0,0,0,0,0],"sum_hessian":[8.26E2,7.09E2,1.17E2,6.61E2,4.8E1,9.5E1,2.2E1,4.34E2,2.27E2,2.8E1,2E1,1.73E2,2.61E2,1.94E2,3.3E1,1.1E1,1.7E1,1.66E2,7E0,1.57E2,1.04E2,3.4E1,1.6E2],"tree_param":{"num_deleted":"0","num_feature":"5","num_nodes":"23","size_leaf_vector":"0"}},{"base_weights":[4.6746862E5,3.7346922E5,1.04659456E6,3.0769306E5,5.5995275E5,8.5417006E5,1.4290971E6,2.3886273E5,3.846379E5,5.323032E5,6.756778E5,6.001947E5,9.270207E5,1.1950511E6,1.8523789E6,1.8688153E5,3.175107E5,3.499654E5,5.286494E5,5.0350584E5,6.066437E5,4.9987284E5,7.748774E5,7.901592E5,1.0548929E6,1.3841325E5,1.9859564E5,4.2952544E5,1.7386997E5,3.029894E5,3.8708525E5,5.908734E5,3.4866244E5,5.672562E5,3.8505162E5,6.827626E5,4.7692953E5,2.57226E5,1.7418411E5,2.1617352E5,1.5430738E5,2.812534E5,3.7169862E5,4.5313166E5,3.1124303E5,6.492298E5,4.721668E5,3.1660222E5,4.7111528E5,1.927543E5,4.363875E5,1.0958768E5,1.8117216E5,1.9696423E5,3.271823E5,2.0287302E5,3.4626378E5,3.1060575E5,5.524114E5],"categories":[],"categories_nodes":[],"categories_segments":[],"categories_sizes":[],"default_left":[1,1,1,1,1,1,1,1,1,1,1,0,1,0,0,1,1,1,1,1,1,0,0,0,0,0,1,0,1,1,1,0,0,1,1,0,0,1,1,0,0,0,0,0,1,0,0,1,1,0,0,0,0,0,0,0,0,0,0],"id":26,"left_children":[1,3,5,7,9,11,13,15,17,19,21,-1,23,-1,-1,25,27,29,31,33,35,-1,-1,-1,-1,-1,37,-1,39,41,43,-1,-1,45,47,-1,-1,49,51,-1,-1,-1,-1,-1,53,-1,-1,55,57,-1,-1,-1,-1,-1,-1,-1,-1,-1,-1],"loss_changes":[4.3485755E13,8.3526964E12,7.022825E12,2.640935E12,2.1628348E11,8.6828384E11,1.3527385E12,1.06492225E12,1.02335565E12,1.566992E10,1.5329237E11,0E0,1.815127E11,0E0,0E0,6.789582E10,1.6630248E12,2.279814E11,2.979623E11,6.4244784E11,3.969804E10,0E0,0E0,0E0,0E0,0E0,1.4555231E11,0E0,7.1936246E9,3.2857129E10,3.9493986E11,0E0,0E0,2.5468233E11,1.0415715E11,0E0,0E0,3.4326577E11,2.3931912E10,0E0,0E0,0E0,0E0,0E0,3.2097436E10,0E0,0E0,2.0833894E10,5.0247238E10,0E0,0E0,0E0,0E0,0E0,0E0,0E0,0E0,0E0,0E0],"parents":[2147483647,0,0,1,1,2,2,3,3,4,4,5,5,6,6,7,7,8,8,9,9,10,10,12,12,15,15,16,16,17,17,18,18,19,19,20,20,26,26,28,28,29,29,30,30,33,33,34,34,37,37,38,38,44,44,47,47,48,48],"right_children":[2,4,6,8,10,12,14,16,18,20,22,-1,24,-1,-1,26,28,30,32,34,36,-1,-1,-1,-1,-1,38,-1,40,42,44,-1,-1,46,48,-1,-1,50,52,-1,-1,-1,-1,-1,54,-1,-1,56,58,-1,-1,-1,-1,-1,-1,-1,-1,-1,-1],"split_conditions":[2.5E0,8.300225E5,8.867256E5,5E-1,1.5E0,6.823066E5,1.2149681E6,6.8564975E5,7.1165375E5,1.00025994E6,8.572951E5,6.001947E3,3.5E0,1.1950511E4,1.852379E4,4.6115575E5,7.723581E5,5.816164E5,7.8685875E5,8.701781E5,1.0277193E6,4.9987285E3,7.7487734E3,7.901592E3,1.0548929E4,1.3841324E3,5.724081E5,4.2952544E3,7.807972E5,1.5E0,6.314936E5,5.9087334E3,3.4866243E3,5E-1,5E-1,6.827626E3,4.7692954E3,5.449706E5,5.841847E5,2.161735E3,1.5430737E3,2.812534E3,3.716986E3,4.5313164E3,6.599469E5,6.492298E3,4.721668E3,9.791429E5,8.867256E5,1.927543E3,4.363875E3,1.0958768E3,1.8117216E3,1.9696423E3,3.271823E3,2.0287301E3,3.4626377E3,3.1060574E3,5.524114E3],"split_indices":[3,4,4,3,3,4,4,4,4,4,4,0,3,0,0,4,4,4,4,4,4,0,0,0,0,0,4,0,4,3,4,0,0,3,3,0,0,4,4,0,0,0,0,0,4,0,0,4,4,0,0,0,0,0,0,0,0,0,0],"split_type":[0,0,0,0,0,0,0,0,0,0,0,0,0,0,0,0,0,0,0,0,0,0,0,0,0,0,0,0,0,0,0,0,0,0,0,0,0,0,0,0,0,0,0,0,0,0,0,0,0,0,0,0,0,0,0,0,0,0,0],"sum_hessian":[8.05E2,6.94E2,1.11E2,5.15E2,1.79E2,7.6E1,3.5E1,2.74E2,2.41E2,1.49E2,3E1,1.9E1,5.7E1,2.5E1,1E1,1.67E2,1.07E2,1.97E2,4.4E1,1.13E2,3.6E1,1.3E1,1.7E1,3.1E1,2.6E1,3.5E1,1.32E2,5.9E1,4.8E1,9.1E1,1.06E2,3.1E1,1.3E1,7.1E1,4.2E1,2E1,1.6E1,3.6E1,9.6E1,1.2E1,3.6E1,7.3E1,1.8E1,5.4E1,5.2E1,3.5E1,3.6E1,2.6E1,1.6E1,2.8E1,8E0,1.1E1,8.5E1,8E0,4.4E1,7E0,1.9E1,7E0,9E0],"tree_param":{"num_deleted":"0","num_feature":"5","num_nodes":"59","size_leaf_vector":"0"}},{"base_weights":[4.6833294E5,3.5221056E5,9.992618E5,2.9788203E5,4.6169844E5,6.10475E5,1.1953262E6,3.873054E5,2.0447655E5,3.5139328E5,6.6026725E5,6.9397756E5,4.5018638E5,1.1006889E6,1.8609658E6,3.0782716E5,5.71031E5,1.8626055E5,2.4012522E5,2.3960225E5,3.5851628E5,6.8912556E5,3.5283106E5,3.7222753E5,7.820485E5,2.5554E5,5.292567E5,9.1608E5,1.1867476E6,2.5056294E5,3.6989322E5,5.353659E5,7.849732E5,1.9014088E5,1.3993888E5,2.7742334E5,1.5916247E5,3.8721703E5,3.076421E5,6.1499956E5,8.674312E5,2.7590156E5,9.149317E4,4.954844E5,2.2134784E5,5.8797694E5,2.8373966E5,1.0857553E5,2.4265166E5,2.2545344E5,3.596698E5,6.686146E5,4.676456E5,1.7764056E5,3.162835E5,5.5937406E5,3.972371E5,2.942976E5,1.5491631E5,2.777984E5,1.2439062E5,4.8376394E5,2.812741E5],"categories":[],"categories_nodes":[],"categories_segments":[],"categories_sizes":[],"default_left":[1,1,1,1,1,1,1,1,1,1,1,1,1,1,0,1,1,1,1,0,1,1,0,0,0,0,0,0,0,1,1,1,0,0,0,0,1,0,1,1,0,1,0,1,1,0,0,0,0,1,1,0,0,0,0,0,0,0,0,0,0,0,0],"id":27,"left_children":[1,3,5,7,9,11,13,15,17,19,21,23,25,27,-1,29,31,33,35,-1,37,39,-1,-1,-1,-1,-1,-1,-1,41,43,45,-1,-1,-1,-1,47,-1,49,51,-1,53,-1,55,57,-1,-1,-1,-1,59,61,-1,-1,-1,-1,-1,-1,-1,-1,-1,-1,-1,-1],"loss_changes":[5.2052856E13,4.020341E12,1.0856805E13,3.8465459E12,4.805716E12,3.969594E11,4.2511117E12,3.314146E12,1.05929245E11,3.354185E10,4.7549566E11,6.440165E11,1.879596E11,3.426914E11,0E0,5.079711E11,1.21502695E11,1.7904435E9,1.8232666E11,0E0,8.383155E10,4.3137787E11,0E0,0E0,0E0,0E0,0E0,0E0,0E0,3.4154322E11,1.3641491E12,6.804189E11,0E0,0E0,0E0,0E0,8.346396E10,0E0,1.540961E11,1.2184663E11,0E0,2.5331656E11,0E0,4.1429238E10,1.3856276E11,0E0,0E0,0E0,0E0,9.2407595E10,1.7523986E11,0E0,0E0,0E0,0E0,0E0,0E0,0E0,0E0,0E0,0E0,0E0,0E0],"parents":[2147483647,0,0,1,1,2,2,3,3,4,4,5,5,6,6,7,7,8,8,9,9,10,10,11,11,12,12,13,13,15,15,16,16,17,17,18,18,20,20,21,21,29,29,30,30,31,31,36,36,38,38,39,39,41,41,43,43,44,44,49,49,50,50],"right_children":[2,4,6,8,10,12,14,16,18,20,22,24,26,28,-1,30,32,34,36,-1,38,40,-1,-1,-1,-1,-1,-1,-1,42,44,46,-1,-1,-1,-1,48,-1,50,52,-1,54,-1,56,58,-1,-1,-1,-1,60,62,-1,-1,-1,-1,-1,-1,-1,-1,-1,-1,-1,-1],"split_conditions":[2.5E0,1.5E0,7.670869E5,5E-1,7.154409E5,6.6709875E5,1.2149681E6,8.300225E5,8.180875E5,4.0541388E5,1.0277193E6,5.554991E5,7.041984E5,3.5E0,1.8609656E4,6.8335844E5,1.2473069E6,7.795481E5,9.038776E5,2.3960225E3,6.212999E5,8.334119E5,3.5283105E3,3.7222751E3,7.820485E3,2.5554E3,5.292567E3,9.1608E3,1.1867476E4,6.662729E5,7.364415E5,1.01302975E6,7.849732E3,1.9014087E3,1.3993887E3,2.7742334E3,9.941936E5,3.8721702E3,6.8564975E5,8.300941E5,8.674312E3,5.206027E5,9.149317E2,7.030284E5,7.8685875E5,5.879769E3,2.8373965E3,1.0857552E3,2.4265166E3,6.676851E5,6.889845E5,6.686146E3,4.676456E3,1.7764056E3,3.162835E3,5.5937407E3,3.9723708E3,2.9429758E3,1.5491631E3,2.777984E3,1.2439061E3,4.837639E3,2.812741E3],"split_indices":[2,2,4,2,4,4,4,4,4,4,4,4,4,2,0,4,4,4,4,0,4,4,0,0,0,0,0,0,0,4,4,4,0,0,0,0,4,0,4,4,0,4,0,4,4,0,0,0,0,4,4,0,0,0,0,0,0,0,0,0,0,0,0],"split_type":[0,0,0,0,0,0,0,0,0,0,0,0,0,0,0,0,0,0,0,0,0,0,0,0,0,0,0,0,0,0,0,0,0,0,0,0,0,0,0,0,0,0,0,0,0,0,0,0,0,0,0,0,0,0,0,0,0,0,0,0,0,0,0],"sum_hessian":[8.49E2,6.98E2,1.51E2,4.69E2,2.29E2,5.2E1,9.9E1,2.38E2,2.31E2,1.49E2,8E1,3.2E1,2E1,8.9E1,1E1,1.68E2,7E1,1.57E2,7.4E1,1.1E1,1.38E2,7.2E1,8E0,8E0,2.4E1,7E0,1.3E1,3.2E1,5.7E1,9E1,7.8E1,6.3E1,7E0,1.42E2,1.5E1,4.9E1,2.5E1,8.4E1,5.4E1,5.4E1,1.8E1,7.7E1,1.3E1,4.1E1,3.7E1,5.1E1,1.2E1,1.7E1,8E0,2.3E1,3.1E1,3.7E1,1.7E1,2.4E1,5.3E1,2.2E1,1.9E1,1.6E1,2.1E1,1.4E1,9E0,1E1,2.1E1],"tree_param":{"num_deleted":"0","num_feature":"5","num_nodes":"63","size_leaf_vector":"0"}},{"base_weights":[4.6155394E5,2.9412797E5,7.7604325E5,2.042358E5,4.3426322E5,4.5539294E5,1.0726021E6,1.709926E5,2.8012684E5,2.5551544E5,4.838131E5,3.461864E5,1.2444421E6,9.232916E5,1.5280666E6,1.26262945E5,2.2784106E5,4.7418125E5,2.6083672E5,3.119356E5,9.218394E4,3.8990484E5,5.485304E5,2.2556119E5,4.7300122E5,1.327959E6,8.7727344E5,1.719363E6,1.0573606E6,1.4814181E5,1.1781494E5,3.737614E5,2.1345752E5,1.9046577E5,2.9522022E5,2.5649514E5,4.739153E5,3.4699497E5,1.899013E5,4.030272E5,6.064687E5,6.3685244E5,9.2467756E5,7.703159E4,1.6705914E5,9.497007E4,1.3924558E5,3.1007116E5,1.562173E5,2.9889465E4,3.5697322E5,1.00708664E5,2.5789845E5,4.7458328E5,2.5261475E5,2.6190261E5,3.7041934E5,3.669354E5,1.0707512E5],"categories":[],"categories_nodes":[],"categories_segments":[],"categories_sizes":[],"default_left":[1,1,1,1,1,1,1,1,1,1,1,1,0,1,1,1,1,0,1,1,0,0,0,1,1,0,1,0,0,1,1,0,0,0,1,1,0,0,1,1,0,0,0,0,0,0,0,1,0,0,0,0,1,0,0,0,0,0,0],"id":28,"left_children":[1,3,5,7,9,11,13,15,17,19,21,23,-1,25,27,29,31,-1,33,35,-1,-1,-1,37,39,-1,41,-1,-1,43,45,-1,-1,-1,47,49,-1,-1,51,53,-1,-1,-1,-1,-1,-1,-1,55,-1,-1,-1,-1,57,-1,-1,-1,-1,-1,-1],"loss_changes":[4.442206E13,6.902671E12,2.746848E13,8.098719E11,1.7894788E12,1.1891405E13,8.926016E12,5.789644E11,2.5813634E11,4.2278873E11,8.071393E11,1.8360367E12,0E0,1.0137968E12,1.4236139E12,7.684227E9,1.3849854E11,0E0,1.7363213E11,2.017316E11,0E0,0E0,0E0,2.242364E11,3.2527037E11,0E0,6.4198856E11,0E0,0E0,3.2868401E10,3.720256E10,0E0,0E0,0E0,7.955022E10,6.4962835E11,0E0,0E0,3.0152904E11,3.4291896E11,0E0,0E0,0E0,0E0,0E0,0E0,0E0,6.2864753E10,0E0,0E0,0E0,0E0,4.5406985E11,0E0,0E0,0E0,0E0,0E0,0E0],"parents":[2147483647,0,0,1,1,2,2,3,3,4,4,5,5,6,6,7,7,8,8,9,9,10,10,11,11,13,13,14,14,15,15,16,16,18,18,19,19,23,23,24,24,26,26,29,29,30,30,34,34,35,35,38,38,39,39,47,47,52,52],"right_children":[2,4,6,8,10,12,14,16,18,20,22,24,-1,26,28,30,32,-1,34,36,-1,-1,-1,38,40,-1,42,-1,-1,44,46,-1,-1,-1,48,50,-1,-1,52,54,-1,-1,-1,-1,-1,-1,-1,56,-1,-1,-1,-1,58,-1,-1,-1,-1,-1,-1],"split_conditions":[2.01E2,1.1475E2,5E-1,2.5E0,2.5E0,1.085E3,3.75E2,6.15E1,6.45E1,1.96E2,1.485E2,3.09965E2,1.2444421E4,2.02685E2,5.365E2,1.5E0,1.5E0,4.7418125E3,7.865E1,1.785E2,9.2183936E2,3.8990483E3,5.4853037E3,2.315E2,5.68635E2,1.327959E4,2.345E2,1.7193629E4,1.0573606E4,3.55E1,5.15E1,3.737614E3,2.1345752E3,1.9046576E3,1.095E2,5E-1,4.739153E3,3.4699497E3,2.575E2,4.305E2,6.0646865E3,6.3685244E3,9.246775E3,7.703159E2,1.6705913E3,9.497007E2,1.3924558E3,9.7335E1,1.562173E3,2.9889465E2,3.5697322E3,1.0070866E3,2.85E2,4.7458325E3,2.5261475E3,2.6190261E3,3.7041934E3,3.669354E3,1.0707511E3],"split_indices":[0,0,1,1,1,0,0,0,0,0,0,0,0,0,0,1,1,0,0,0,0,0,0,0,0,0,0,0,0,0,0,0,0,0,0,1,0,0,0,0,0,0,0,0,0,0,0,0,0,0,0,0,0,0,0,0,0,0,0],"split_type":[0,0,0,0,0,0,0,0,0,0,0,0,0,0,0,0,0,0,0,0,0,0,0,0,0,0,0,0,0,0,0,0,0,0,0,0,0,0,0,0,0,0,0,0,0,0,0,0,0,0,0,0,0,0,0,0,0,0,0],"sum_hessian":[8.47E2,5.54E2,2.93E2,3.39E2,2.15E2,1.42E2,1.51E2,2.38E2,1.01E2,4.8E1,1.67E2,1.26E2,1.6E1,1.16E2,3.5E1,1.35E2,1.03E2,7E0,9.4E1,3.5E1,1.3E1,7.1E1,9.6E1,6.6E1,6E1,9E0,1.07E2,2.3E1,1.2E1,3.3E1,1.02E2,7E0,9.6E1,3.3E1,6.1E1,2.8E1,7E0,1.3E1,5.3E1,4.2E1,1.8E1,2E1,8.7E1,8E0,2.5E1,5.2E1,5E1,5.4E1,7E0,9E0,1.9E1,2.4E1,2.9E1,2.7E1,1.5E1,3.3E1,2.1E1,1.6E1,1.3E1],"tree_param":{"num_deleted":"0","num_feature":"5","num_nodes":"59","size_leaf_vector":"0"}},{"base_weights":[4.6159684E5,3.5137088E5,1.0547608E6,2.7487597E5,4.494988E5,9.510286E5,1.8992354E6,2.1404783E5,3.327945E5,3.6298978E5,5.470093E5,7.655358E5,1.08978E6,1.5868411E5,2.382471E5,2.750899E5,3.7255188E5,2.4367375E5,4.778791E5,4.8776378E5,6.574727E5,4.9191903E5,8.0324725E5,9.149424E5,1.2818948E6,1.7778755E5,1.0967755E5,5.485722E5,2.1399772E5,3.34975E5,2.3633484E5,4.0884644E5,2.779115E5,5.1207725E5,1.8568358E5,6.430917E5,2.7923212E5,9.438699E5,4.8844603E5,7.053474E5,1.1753251E6,1.5197415E6,1.03859744E6,1.3341369E5,2.6017525E5,3.983161E4,1.4422292E5,1.7996222E5,2.844359E5,2.2031434E5,1.4574756E5,3.2004934E5,1.4623833E5,3.5922475E5,6.9073706E5,1.5335838E5,9.966559E4,1.2344466E5,1.8569898E5,3.1012244E5,2.1641552E5],"categories":[],"categories_nodes":[],"categories_segments":[],"categories_sizes":[],"default_left":[1,1,1,1,1,1,0,1,1,1,1,1,1,1,1,1,1,1,1,0,1,0,0,1,1,1,1,0,1,0,0,0,0,0,1,0,1,0,1,0,0,0,0,1,0,0,0,1,1,0,0,0,0,0,0,0,0,0,0,0,0],"id":29,"left_children":[1,3,5,7,9,11,-1,13,15,17,19,21,23,25,27,29,31,33,35,-1,37,-1,-1,39,41,43,45,-1,47,-1,-1,-1,-1,-1,49,-1,51,-1,53,-1,-1,-1,-1,55,-1,-1,-1,57,59,-1,-1,-1,-1,-1,-1,-1,-1,-1,-1,-1,-1],"loss_changes":[5.324268E13,5.0782955E12,9.406482E12,1.3098119E12,2.3489738E12,2.1512669E12,0E0,2.2210832E11,3.5405798E11,2.1179788E12,5.9553245E11,1.5174782E11,9.7682824E11,3.8544736E10,8.8345726E11,1.1810583E11,2.8139376E11,1.1812272E12,2.511585E12,0E0,1.7657747E12,0E0,0E0,1.1902596E12,4.1888514E10,1.2249098E11,4.2512482E10,0E0,2.4848735E11,0E0,0E0,0E0,0E0,0E0,6.3317737E10,0E0,1.6490535E11,0E0,5.6222024E11,0E0,0E0,0E0,0E0,4.908286E9,0E0,0E0,0E0,5.2840366E9,1.0260316E9,0E0,0E0,0E0,0E0,0E0,0E0,0E0,0E0,0E0,0E0,0E0,0E0],"parents":[2147483647,0,0,1,1,2,2,3,3,4,4,5,5,7,7,8,8,9,9,10,10,11,11,12,12,13,13,14,14,15,15,16,16,17,17,18,18,20,20,23,23,24,24,25,25,26,26,28,28,34,34,36,36,38,38,43,43,47,47,48,48],"right_children":[2,4,6,8,10,12,-1,14,16,18,20,22,24,26,28,30,32,34,36,-1,38,-1,-1,40,42,44,46,-1,48,-1,-1,-1,-1,-1,50,-1,52,-1,54,-1,-1,-1,-1,56,-1,-1,-1,58,60,-1,-1,-1,-1,-1,-1,-1,-1,-1,-1,-1,-1],"split_conditions":[2.5E0,7.153229E5,1.1091388E6,5E-1,5E-1,7.888851E5,1.8992354E4,5.554991E5,5.80961E5,8.300225E5,1.5E0,5.816164E5,3.5E0,4.8828494E5,5.816164E5,4.384752E5,6.6709875E5,7.364415E5,8.701781E5,4.8776377E3,8.025786E5,4.9191904E3,8.032472E3,8.845871E5,8.310026E5,4.4425462E5,5.206027E5,5.4857217E3,6.894436E5,3.34975E3,2.3633484E3,4.0884644E3,2.779115E3,5.1207725E3,7.8685875E5,6.4309165E3,1.0277193E6,9.438698E3,9.9366425E5,7.0534736E3,1.1753251E4,1.5197415E4,1.0385975E4,4.384752E5,2.6017524E3,3.9831607E2,1.4422291E3,5.841847E5,6.920458E5,2.2031433E3,1.4574756E3,3.2004934E3,1.4623833E3,3.5922473E3,6.9073706E3,1.5335837E3,9.9665594E2,1.2344465E3,1.8569897E3,3.1012244E3,2.164155E3],"split_indices":[3,4,4,3,3,4,0,4,4,4,3,4,3,4,4,4,4,4,4,0,4,0,0,4,4,4,4,0,4,0,0,0,0,0,4,0,4,0,4,0,0,0,0,4,0,0,0,4,4,0,0,0,0,0,0,0,0,0,0,0,0],"split_type":[0,0,0,0,0,0,0,0,0,0,0,0,0,0,0,0,0,0,0,0,0,0,0,0,0,0,0,0,0,0,0,0,0,0,0,0,0,0,0,0,0,0,0,0,0,0,0,0,0,0,0,0,0,0,0,0,0,0,0,0,0],"sum_hessian":[8.19E2,6.92E2,1.27E2,3.91E2,3.01E2,1.15E2,1.2E1,1.93E2,1.98E2,1.62E2,1.39E2,5.2E1,6.3E1,6.1E1,1.32E2,8.4E1,1.14E2,8.1E1,8.1E1,9.4E1,4.5E1,8E0,4.4E1,3.6E1,2.7E1,4.2E1,1.9E1,8E0,1.24E2,3E1,5.4E1,8E1,3.4E1,1.3E1,6.8E1,4.3E1,3.8E1,1.5E1,3E1,2.2E1,1.4E1,1.1E1,1.6E1,2.9E1,1.3E1,7E0,1.2E1,8.6E1,3.8E1,3.4E1,3.4E1,2.8E1,1E1,2E1,1E1,1.6E1,1.3E1,1E1,7.6E1,2.5E1,1.3E1],"tree_param":{"num_deleted":"0","num_feature":"5","num_nodes":"61","size_leaf_vector":"0"}},{"base_weights":[4.7456684E5,2.9962922E5,7.6630044E5,1.5977702E5,3.8754972E5,4.3170553E5,1.0362685E6,1.0442379E5,1.9593156E5,2.8682822E5,5.6581956E5,3.2300738E5,9.960479E5,8.852461E5,1.5402566E6,3.432961E4,1.1085097E5,2.1976244E5,1.1768271E5,2.2214905E5,3.5396066E5,4.5139003E5,6.1909425E5,2.5301217E5,4.5994312E5,7.0887756E5,1.0587151E6,1.8855247E5,3.2892553E5,6.73003E4,1.4065766E5,4.613683E5,1.9966586E5,4.9384734E5,3.182452E5,7.5202875E5,5.440619E5,3.5649366E5,2.0784066E5,3.6336972E5,5.2386203E5,5.9623106E5,9.984921E5,1.9950677E5,7.87182E4,8.816592E4,2.1030927E5,2.4154367E5,4.321567E5,9.433554E4,2.5489838E5,1.7539322E5,2.7290347E5],"categories":[],"categories_nodes":[],"categories_segments":[],"categories_sizes":[],"default_left":[1,1,1,1,1,1,1,1,1,1,1,1,0,1,0,0,0,1,1,1,0,1,1,1,1,1,0,1,0,0,0,0,1,0,0,0,0,1,1,0,0,0,0,0,0,0,0,0,0,0,1,0,0],"id":30,"left_children":[1,3,5,7,9,11,13,15,17,19,21,23,-1,25,-1,-1,-1,27,29,31,-1,33,35,37,39,41,-1,43,-1,-1,-1,-1,45,-1,-1,-1,-1,47,49,-1,-1,-1,-1,-1,-1,-1,-1,-1,-1,-1,51,-1,-1],"loss_changes":[3.988404E13,5.9999477E12,2.6109643E13,3.6378404E11,5.260299E12,7.836885E12,1.096688E13,3.1334138E10,1.8858325E11,7.680725E11,3.789365E11,9.667168E11,0E0,3.134999E12,0E0,0E0,0E0,2.3438714E11,2.4102175E10,4.564792E11,0E0,5.764861E10,2.990308E11,2.8583657E11,3.804024E10,1.5578568E12,0E0,6.8516577E10,0E0,0E0,0E0,0E0,9.419804E10,0E0,0E0,0E0,0E0,8.695946E10,2.750664E11,0E0,0E0,0E0,0E0,0E0,0E0,0E0,0E0,0E0,0E0,0E0,7.9631483E9,0E0,0E0],"parents":[2147483647,0,0,1,1,2,2,3,3,4,4,5,5,6,6,7,7,8,8,9,9,10,10,11,11,13,13,17,17,18,18,19,19,21,21,22,22,23,23,24,24,25,25,27,27,32,32,37,37,38,38,50,50],"right_children":[2,4,6,8,10,12,14,16,18,20,22,24,-1,26,-1,-1,-1,28,30,32,-1,34,36,38,40,42,-1,44,-1,-1,-1,-1,46,-1,-1,-1,-1,48,50,-1,-1,-1,-1,-1,-1,-1,-1,-1,-1,-1,52,-1,-1],"split_conditions":[2.01625E2,5E-1,5E-1,5.75E1,1.39E2,9.88E2,3.795E2,3.75E1,1.635E2,8.55E1,1.575E2,3.8008002E2,9.960479E3,2.5E0,1.5402565E4,3.4329608E2,1.1085096E3,1.375E2,1.775E2,4.5975E1,3.5396064E3,1.515E2,1.695E2,2.42E2,4.525E2,2.99E2,1.0587151E4,1.23E2,3.2892551E3,6.730029E2,1.4065765E3,4.613683E3,4.95E1,4.938473E3,3.182452E3,7.520287E3,5.4406187E3,2.22E2,2.59E2,3.633697E3,5.23862E3,5.9623105E3,9.984921E3,1.9950676E3,7.87182E2,8.816592E2,2.1030925E3,2.4154368E3,4.321567E3,9.4335535E2,2.775E2,1.7539321E3,2.7290347E3],"split_indices":[0,3,3,0,0,0,0,0,0,0,0,0,0,3,0,0,0,0,0,0,0,0,0,0,0,0,0,0,0,0,0,0,0,0,0,0,0,0,0,0,0,0,0,0,0,0,0,0,0,0,0,0,0],"split_type":[0,0,0,0,0,0,0,0,0,0,0,0,0,0,0,0,0,0,0,0,0,0,0,0,0,0,0,0,0,0,0,0,0,0,0,0,0,0,0,0,0,0,0,0,0,0,0,0,0,0,0,0,0],"sum_hessian":[7.85E2,4.92E2,2.93E2,1.91E2,3.01E2,1.32E2,1.61E2,7.7E1,1.14E2,1.94E2,1.07E2,1.12E2,2E1,1.26E2,3.5E1,7E0,7E1,8.6E1,2.8E1,1.01E2,9.3E1,3.7E1,7E1,7.6E1,3.6E1,6.5E1,6.1E1,6.9E1,1.7E1,1E1,1.8E1,7E0,9.4E1,2.6E1,1.1E1,2.2E1,4.8E1,2.1E1,5.5E1,1.7E1,1.9E1,4.9E1,1.6E1,6.2E1,7E0,9E0,8.5E1,1E1,1.1E1,1.7E1,3.8E1,9E0,2.9E1],"tree_param":{"num_deleted":"0","num_feature":"5","num_nodes":"53","size_leaf_vector":"0"}},{"base_weights":[4.4130703E5,3.1865778E5,9.6429144E5,2.7269384E5,4.3508322E5,8.771362E5,2.1228975E6,2.2310194E5,3.6391325E5,3.6850972E5,6.2129725E5,6.034609E5,1.0252629E6,2.9380475E5,1.5367198E5,3.3877853E5,5.628051E5,4.7648303E5,2.20203E5,3.770598E5,6.473435E5,1.1099305E6,7.0541425E5,3.184162E5,1.04766055E5,1.2967828E5,1.6018934E5,3.923978E5,7.396387E5,2.4312044E5,1.6606488E5,9.546284E5,5.252987E5,9.912814E5,1.4558319E6,2.5167536E5,4.2905484E5,1.537402E5,9.9132445E4,4.1972325E5,2.6873034E5,9.726546E4,2.4699014E5,5.68791E5,3.182864E5,2.836476E5,8.1430195E4,6.8923406E5,3.692813E5],"categories":[],"categories_nodes":[],"categories_segments":[],"categories_sizes":[],"default_left":[1,1,1,1,1,1,0,1,1,1,0,1,1,1,1,0,0,1,1,0,1,1,0,1,0,1,0,1,0,0,1,0,1,0,0,1,1,0,0,0,0,0,0,0,0,0,0,0,0],"id":31,"left_children":[1,3,5,7,9,11,-1,13,15,17,-1,19,21,23,25,-1,-1,27,29,-1,31,33,-1,35,-1,37,-1,39,-1,-1,41,-1,43,-1,-1,45,47,-1,-1,-1,-1,-1,-1,-1,-1,-1,-1,-1,-1],"loss_changes":[5.1520784E13,3.391854E12,1.3587649E13,2.0585413E12,2.0520821E12,5.2188466E12,0E0,1.4716974E12,6.3418506E11,2.1048947E12,0E0,2.824717E11,1.7084742E12,6.738233E11,3.9342572E9,0E0,0E0,1.4578394E12,3.4068759E10,0E0,1.1111424E12,1.4707663E12,0E0,8.814896E11,0E0,1.3424067E10,0E0,9.672275E10,0E0,0E0,9.289623E10,0E0,1.1607527E11,0E0,0E0,4.4501094E11,5.0751812E11,0E0,0E0,0E0,0E0,0E0,0E0,0E0,0E0,0E0,0E0,0E0,0E0],"parents":[2147483647,0,0,1,1,2,2,3,3,4,4,5,5,7,7,8,8,9,9,11,11,12,12,13,13,14,14,17,17,18,18,20,20,21,21,23,23,25,25,27,27,30,30,32,32,35,35,36,36],"right_children":[2,4,6,8,10,12,-1,14,16,18,-1,20,22,24,26,-1,-1,28,30,-1,32,34,-1,36,-1,38,-1,40,-1,-1,42,-1,44,-1,-1,46,48,-1,-1,-1,-1,-1,-1,-1,-1,-1,-1,-1,-1],"split_conditions":[2.5E0,8.17823E5,1.2149681E6,1.5E0,1.5E0,7.683959E5,2.1228975E4,5E-1,7.364415E5,5E-1,6.212972E3,5.6414475E5,1.01302975E6,7.795481E5,4.6115575E5,3.3877852E3,5.6280513E3,1.0092005E6,9.09997E5,3.7705981E3,6.212999E5,4.5E0,7.0541426E3,6.8512225E5,1.0476605E3,4.0872478E5,1.6018934E3,9.1549025E5,7.3963867E3,2.4312043E3,9.941936E5,9.546283E3,4.5E0,9.912813E3,1.4558318E4,6.664906E5,6.867292E5,1.537402E3,9.913244E2,4.1972324E3,2.6873035E3,9.726546E2,2.4699014E3,5.6879097E3,3.182864E3,2.8364758E3,8.1430194E2,6.8923403E3,3.692813E3],"split_indices":[2,4,4,2,2,4,0,2,4,2,0,4,4,4,4,0,0,4,4,0,4,2,0,4,0,4,0,4,0,0,4,0,2,0,0,4,4,0,0,0,0,0,0,0,0,0,0,0,0],"split_type":[0,0,0,0,0,0,0,0,0,0,0,0,0,0,0,0,0,0,0,0,0,0,0,0,0,0,0,0,0,0,0,0,0,0,0,0,0,0,0,0,0,0,0,0,0,0,0,0,0],"sum_hessian":[8.07E2,6.55E2,1.52E2,4.72E2,1.83E2,1.43E2,9E0,3.08E2,1.64E2,1.37E2,4.6E1,5.2E1,9.1E1,1.51E2,1.57E2,1.48E2,1.6E1,7.8E1,5.9E1,1E1,4.2E1,7E1,2.1E1,1.33E2,1.8E1,3.8E1,1.19E2,6.1E1,1.7E1,3.9E1,2E1,1E1,3.2E1,5.5E1,1.5E1,8.5E1,4.8E1,1.9E1,1.9E1,4.8E1,1.3E1,1.2E1,8E0,2.5E1,7E0,7.1E1,1.4E1,7E0,4.1E1],"tree_param":{"num_deleted":"0","num_feature":"5","num_nodes":"49","size_leaf_vector":"0"}},{"base_weights":[4.4628016E5,3.4504044E5,9.619922E5,2.4722567E5,4.2817572E5,7.3896925E5,1.0778774E6,1.9645288E5,3.0349512E5,3.5187634E5,5.188158E5,4.536998E5,8.096078E5,1.0144752E6,1.4582868E6,1.3464569E5,2.3535031E5,3.1386344E5,2.4502111E5,2.7506978E5,4.6992378E5,4.857655E5,9.8912956E5,8.6819694E5,1.1739389E6,1.5100533E5,1.02410664E5,2.6913297E5,1.3986586E5,2.8253794E5,3.5394797E5,3.520613E5,1.4262395E5,5.8843225E5,3.5151316E5,4.3562775E5,6.057672E5,1.2885505E5,2.1121573E5,5.8793824E4,1.5654328E5,2.0661052E5,6.548678E5,1.0037148E5,1.5536967E5,3.3267953E5,2.1376312E5,3.9519825E5,2.3135075E5,4.022514E5,3.029953E5,2.1343347E5,4.3687E5,3.9532503E5,5.200158E5,7.804999E5,4.2763578E5,2.693663E5,1.17254266E5,1.4737112E5,2.8641153E5,2.1413667E5,3.3732475E5,4.2767466E5,3.3141394E5,3.84634E5,1.177489E6,5.0409112E5,2.4420008E5],"categories":[],"categories_nodes":[],"categories_segments":[],"categories_sizes":[],"default_left":[1,1,1,1,1,1,1,1,1,1,1,0,0,1,0,1,1,1,0,1,1,1,0,0,0,1,1,1,1,1,1,1,0,0,1,1,1,0,0,0,0,1,0,0,0,0,0,0,1,0,1,0,0,1,0,1,1,0,0,0,0,0,0,0,0,0,0,0,0],"id":32,"left_children":[1,3,5,7,9,11,13,15,17,19,21,-1,-1,23,-1,25,27,29,-1,31,33,35,-1,-1,-1,37,39,41,43,45,47,49,-1,-1,51,53,55,-1,-1,-1,-1,57,-1,-1,-1,-1,-1,-1,59,-1,61,-1,-1,63,-1,65,67,-1,-1,-1,-1,-1,-1,-1,-1,-1,-1,-1,-1],"loss_changes":[4.2480716E13,5.4807306E12,2.6667217E12,8.488894E11,2.3762787E12,6.200817E11,5.948194E11,3.770155E11,1.3432259E10,1.7203693E12,2.1153637E12,0E0,0E0,7.7690254E11,0E0,2.0395459E10,2.946058E11,5.4443114E10,0E0,1.2346343E12,9.017376E11,6.867376E11,0E0,0E0,0E0,3.013188E10,5.218466E10,1.6734785E12,2.1623603E9,1.840728E11,1.614288E11,7.2667365E10,0E0,0E0,4.017708E11,1.8554972E11,1.0357467E12,0E0,0E0,0E0,0E0,3.3851887E11,0E0,0E0,0E0,0E0,0E0,0E0,2.7150975E10,0E0,6.1987357E10,0E0,0E0,2.7796701E10,0E0,2.847341E12,2.1349217E11,0E0,0E0,0E0,0E0,0E0,0E0,0E0,0E0,0E0,0E0,0E0,0E0],"parents":[2147483647,0,0,1,1,2,2,3,3,4,4,5,5,6,6,7,7,8,8,9,9,10,10,13,13,15,15,16,16,17,17,19,19,20,20,21,21,25,25,26,26,27,27,28,28,29,29,30,30,31,31,34,34,35,35,36,36,41,41,48,48,50,50,53,53,55,55,56,56],"right_children":[2,4,6,8,10,12,14,16,18,20,22,-1,-1,24,-1,26,28,30,-1,32,34,36,-1,-1,-1,38,40,42,44,46,48,50,-1,-1,52,54,56,-1,-1,-1,-1,58,-1,-1,-1,-1,-1,-1,60,-1,62,-1,-1,64,-1,66,68,-1,-1,-1,-1,-1,-1,-1,-1,-1,-1,-1,-1],"split_conditions":[2.5E0,6.857785E5,7.9345E5,5E-1,5E-1,5.816164E5,1.1091388E6,5.554991E5,6.212999E5,8.300225E5,1.1219255E6,4.536998E3,8.096078E3,3.5E0,1.4582867E4,4.8828494E5,6.662729E5,5.554991E5,2.450211E3,7.807972E5,8.701781E5,1.5E0,9.891295E3,8.681969E3,1.1739389E4,4.6115575E5,5.206027E5,6.639952E5,6.718586E5,4.6115575E5,1.5E0,6.96688E5,1.4262395E3,5.8843223E3,9.86616E5,8.3533544E5,8.025786E5,1.2885504E3,2.1121572E3,5.8793823E2,1.5654327E3,6.212999E5,6.548678E3,1.0037147E3,1.5536967E3,3.3267952E3,2.137631E3,3.9519824E3,5.816164E5,4.022514E3,7.153229E5,2.1343347E3,4.3686997E3,8.300225E5,5.200158E3,7.508234E5,9.733264E5,2.693663E3,1.1725426E3,1.4737112E3,2.8641152E3,2.1413667E3,3.3732473E3,4.2767466E3,3.3141394E3,3.8463398E3,1.177489E4,5.040911E3,2.4420007E3],"split_indices":[3,4,4,3,3,4,4,4,4,4,4,0,0,3,0,4,4,4,0,4,4,3,0,0,0,